%YAML:1.0
opencv_ml_svm:
   format: 3
   svmType: C_SVC
   kernel:
      type: RBF
      gamma: 1.
   C: 55.
   term_criteria: { iterations:10000000 }
   var_count: 35
   class_count: 16
   class_labels: !!opencv-matrix
      rows: 16
      cols: 1
      dt: i
      data: [ 0, 1, 2, 3, 4, 5, 6, 7, 8, 9, 10, 11, 12, 13, 14, 15 ]
   sv_total: 709
   support_vectors:
      - [ 3.67250621e-01, 3.59244108e-01, -9.71248001e-02,
          -1.54221490e-01, -6.64850548e-02, 4.24352214e-02,
          -4.23883021e-01, -3.77136245e-02, -1.77835569e-01,
          3.08988560e-02, 5.89545332e-02, -1.48267344e-01,
          -2.77950577e-02, -5.56006581e-02, 6.82320669e-02,
          -1.50233060e-01, -6.16553575e-02, 7.94869438e-02,
          -1.83941200e-01, -1.61065176e-01, -2.12588049e-02,
          4.40806299e-01, 1.79737702e-01, -6.19916692e-02,
          1.32271647e-01, 1.71366632e-01, 1.65581480e-01,
          -2.95249391e-02, 1.74178362e-01, -8.22040141e-02,
          -5.96529385e-03, -3.86015251e-02, 2.88992207e-02,
          -1.04575545e-01, 7.34468782e-03 ]
      - [ 1.04278445e-01, 1.31788269e-01, -3.40237528e-01,
          -5.46005182e-02, -6.11500107e-02, -7.37992525e-02,
          -1.70556575e-01, 7.62467757e-02, -2.10961506e-01,
          -2.39749588e-02, -1.03719011e-02, -2.03140423e-01,
          -2.36360595e-01, -4.89178039e-02, 1.28524780e-01,
          -2.16759399e-01, -2.66302843e-02, 6.27852306e-02,
          -3.07844311e-01, -1.60957202e-01, -1.11382268e-02,
          4.88383889e-01, 1.69941366e-01, -1.47868514e-01,
          8.03627074e-02, 2.07258537e-01, 2.51564115e-01,
          -2.93384418e-02, 1.73729613e-01, -1.32709205e-01,
          6.76244963e-03, -2.66746040e-02, -2.22678552e-03,
          -1.22272931e-01, -9.44987461e-02 ]
      - [ 3.33958089e-01, 5.59015423e-02, -1.57389924e-01,
          -4.85629767e-01, -4.21135761e-02, 2.99873613e-02,
          -2.53556192e-01, 5.29925860e-02, -1.31216362e-01,
          2.47486811e-02, -3.01721413e-02, -5.36112636e-02,
          -1.79832831e-01, -5.70914485e-02, 1.63171262e-01,
          -2.63582349e-01, -1.06420793e-01, -4.40721586e-03,
          -2.76286900e-01, -1.26811221e-01, -4.25550714e-02,
          3.30536991e-01, 1.31170049e-01, -5.63894883e-02,
          1.18698955e-01, 1.73128113e-01, 2.40895107e-01, 3.12458421e-03,
          1.44678339e-01, -9.90272611e-02, 6.53237849e-02,
          3.08953729e-02, 9.52142105e-03, -1.46610588e-01,
          -8.24210644e-02 ]
      - [ 6.16577864e-01, -1.02434829e-01, -5.58647327e-02,
          -2.54715562e-01, -3.22026052e-02, -2.01971307e-01,
          -2.35655174e-01, -1.09392136e-01, -1.40371323e-01,
          1.51652545e-01, 6.97659515e-03, -6.55469894e-02,
          -9.85187143e-02, -1.00841358e-01, 6.91123977e-02,
          -1.43631503e-01, -7.89728016e-02, -2.63542333e-03,
          -2.16867015e-01, -1.46259651e-01, -3.52036580e-02,
          3.37189347e-01, 1.94869697e-01, -9.19213519e-02,
          1.16950653e-01, 1.75773934e-01, 1.75330892e-01,
          -2.94349324e-02, 1.03736237e-01, -1.12313494e-01,
          -8.33551679e-03, 9.87058226e-03, -1.71581958e-03,
          -5.46256155e-02, -3.06963772e-02 ]
      - [ 9.42286849e-02, 1.13527514e-01, -3.34776819e-01,
          -6.74340129e-02, -7.38884136e-02, -7.48620182e-02,
          -1.75573170e-01, 7.29048401e-02, -2.08877280e-01,
          -5.60358353e-03, 3.66817438e-03, -2.09023491e-01,
          -2.42090464e-01, -6.41847551e-02, 1.20800480e-01,
          -2.19120771e-01, -2.81115752e-02, 6.49358183e-02,
          -2.95049340e-01, -1.57570451e-01, -1.69527754e-02,
          4.96648312e-01, 1.66202486e-01, -1.52021900e-01,
          7.76488334e-02, 2.06371769e-01, 2.53815025e-01,
          -2.87974272e-02, 1.82365507e-01, -1.31494194e-01,
          4.25151177e-03, -1.82942227e-02, 6.51479233e-03,
          -1.17878929e-01, -9.17947367e-02 ]
      - [ 4.77820605e-01, 2.47475922e-01, -1.28064916e-01,
          -3.70228052e-01, -4.01436277e-02, -1.90240815e-02,
          -3.78512353e-01, -4.25505005e-02, -1.99736714e-01,
          -6.49433732e-02, -1.78270303e-02, -7.33591095e-02,
          -1.17629945e-01, -7.69583061e-02, 9.49393138e-02,
          -1.57271832e-01, -1.24505937e-01, 6.89953268e-02,
          -2.15198845e-01, -1.01771906e-01, -6.01764955e-03,
          3.39848578e-01, 1.12869076e-01, -1.20736457e-01,
          9.27214622e-02, 1.65815055e-01, 1.56275332e-01,
          -1.83554720e-02, 1.07411884e-01, -8.00128281e-02,
          -2.80052016e-04, 3.94492112e-02, 7.47331232e-03,
          -7.49200433e-02, -2.83483826e-02 ]
      - [ 1.31311834e-01, 1.43452749e-01, -3.32082599e-01,
          -4.23615277e-02, -6.02226034e-02, -5.88597879e-02,
          -1.72536954e-01, 8.21020082e-02, -1.94690332e-01,
          -4.94839251e-02, -7.25149643e-03, -1.91345483e-01,
          -2.26444378e-01, -3.46951783e-02, 1.45468026e-01,
          -2.05941662e-01, -2.65137143e-02, 6.30739853e-02,
          -3.32165658e-01, -1.72577426e-01, -2.89496128e-02,
          4.81278658e-01, 1.68860674e-01, -1.53900087e-01,
          8.13409314e-02, 2.04274282e-01, 2.55213976e-01,
          -3.58121693e-02, 1.62494987e-01, -1.26779094e-01,
          2.45855041e-02, -4.49437089e-02, -2.06990279e-02,
          -1.21634506e-01, -9.42376107e-02 ]
      - [ 3.92623954e-02, -1.88035276e-02, -1.06136553e-01,
          -3.04293573e-01, -9.44821909e-02, 1.35968653e-02,
          -1.69460058e-01, -2.33239750e-03, -1.90138459e-01,
          9.08498913e-02, 1.17394090e-01, -1.58802927e-01,
          -2.28102937e-01, -2.16333508e-01, 1.61834866e-01,
          -2.47216538e-01, -7.77778625e-02, 9.89726931e-02,
          -2.58924633e-01, -1.75030276e-01, -9.59045738e-02,
          4.89500225e-01, 1.43941134e-01, -5.52772097e-02,
          1.25145569e-01, 1.46109909e-01, 3.14175308e-01, 2.24223733e-03,
          1.66207895e-01, -1.02427080e-01, -1.17122689e-02,
          -2.06266232e-02, -4.13339548e-02, -1.35453716e-01,
          -7.94131681e-02 ]
      - [ 5.70577025e-01, -8.87720436e-02, -1.47584274e-01,
          -3.47318083e-01, -2.21697669e-02, -2.16444582e-01,
          -2.19538316e-01, -9.72880796e-02, -1.58611596e-01,
          6.87206537e-02, 1.59817748e-02, 1.12347037e-03,
          -1.46905407e-01, -1.11706540e-01, 6.89274967e-02,
          -7.73461983e-02, -9.98018235e-02, 3.84944864e-02,
          -1.95934638e-01, -1.36344120e-01, -7.85327479e-02,
          3.76842439e-01, 1.31792471e-01, -4.91384380e-02,
          1.03545830e-01, 1.35996133e-01, 2.01920062e-01,
          -6.96266592e-02, 1.25235841e-01, -7.61159137e-02,
          -2.19819415e-02, -2.66197063e-02, -2.00839229e-02,
          -9.74241942e-02, -2.08428930e-02 ]
      - [ 1.33970305e-01, -1.70354217e-01, 9.43915267e-03,
          -3.38337928e-01, -2.97464076e-02, 3.73737849e-02,
          -1.26995370e-01, -1.20207287e-01, -2.07662612e-01,
          -9.86099169e-02, -5.11473790e-02, -1.03964373e-01,
          -1.51361138e-01, -6.18728772e-02, 1.95394859e-01,
          -2.01203436e-01, -2.87423581e-02, 5.93654364e-02,
          -2.61328757e-01, -1.82172015e-01, -2.29771473e-02,
          5.37175536e-01, 1.68772921e-01, -1.50276810e-01,
          7.41970614e-02, 2.18681619e-01, 2.93238014e-01,
          -2.11003795e-02, 1.64302573e-01, -9.63151678e-02,
          1.67546682e-02, -3.00581660e-02, 3.24943811e-02,
          -8.78422633e-02, -4.43420224e-02 ]
      - [ 6.07736886e-01, 9.87154096e-02, -2.07417682e-01,
          -1.48268774e-01, -2.22838819e-02, 1.36278197e-01,
          -2.51017451e-01, -4.18974981e-02, -1.26662537e-01,
          1.88717365e-01, 1.63637474e-02, -6.42432198e-02,
          -1.59250513e-01, -3.45370695e-02, 1.74337029e-01,
          -1.10172965e-01, -1.52713716e-01, 1.97465774e-02,
          -2.01233089e-01, -9.58112627e-02, -5.86253330e-02,
          3.80031496e-01, 7.88991973e-02, -4.71615866e-02,
          1.34167388e-01, 1.63367927e-01, 2.31912643e-01,
          -2.68470235e-02, 1.12527877e-01, -4.42773588e-02,
          -1.07412832e-02, 7.48584047e-03, 1.04163671e-02,
          -5.40546998e-02, -1.48058701e-02 ]
      - [ 4.14390624e-01, -3.03270429e-01, -5.20154908e-02,
          -1.64785609e-01, 3.84318340e-03, 9.64889824e-02,
          -1.43713579e-01, 1.18552960e-01, -3.02726895e-01,
          -2.90335193e-02, 1.45219350e-02, -2.81860847e-02,
          -2.86828160e-01, -1.33009896e-01, 1.47309214e-01,
          -2.40722984e-01, -5.22181839e-02, -5.50752040e-03,
          -1.94693163e-01, -1.26666084e-01, -7.94036314e-02,
          4.43230957e-01, 8.09813589e-02, -1.18325934e-01,
          8.68908167e-02, 1.06618904e-01, 2.31050968e-01,
          -7.62393475e-02, 5.65770976e-02, -8.07921886e-02,
          1.43863913e-02, -5.16681857e-02, 2.93732081e-02,
          -1.17189839e-01, -6.30291179e-02 ]
      - [ 3.52970243e-01, -3.81282866e-01, -1.91802271e-02,
          -1.04180396e-01, -6.99741766e-02, -3.95785868e-02,
          -3.71581525e-01, -1.10243209e-01, -1.65413111e-01,
          -2.57262718e-02, -7.88683370e-02, -1.67963970e-02,
          -2.08944499e-01, -1.71868186e-02, 1.25543877e-01,
          -8.19266289e-02, -1.10076070e-01, 7.11001605e-02,
          -2.96989381e-01, -8.63555372e-02, -7.88165182e-02,
          3.99250537e-01, 6.55483305e-02, -8.52633566e-02,
          1.88362181e-01, 1.83130801e-01, 2.19401807e-01, 2.95293164e-02,
          1.50434390e-01, -1.29210860e-01, 2.73733269e-02,
          -1.61107816e-02, -1.11190369e-02, -6.41257167e-02,
          -9.25433561e-02 ]
      - [ 1.08132094e-01, 1.33616701e-01, -3.39307696e-01,
          -5.16533814e-02, -6.25470281e-02, -7.07383901e-02,
          -1.71766132e-01, 7.76031390e-02, -2.03757748e-01,
          -3.01154852e-02, -8.09727889e-03, -1.99383199e-01,
          -2.35518977e-01, -4.57844287e-02, 1.32877856e-01,
          -2.14844763e-01, -2.71948297e-02, 6.24022931e-02,
          -3.14330131e-01, -1.64392218e-01, -1.58367716e-02,
          4.87425238e-01, 1.69136658e-01, -1.50524586e-01,
          7.91034177e-02, 2.06158027e-01, 2.51525342e-01,
          -3.03258356e-02, 1.73218489e-01, -1.30471602e-01,
          1.19278170e-02, -3.10486332e-02, -6.42779889e-03,
          -1.22507498e-01, -9.43586081e-02 ]
      - [ 4.90664065e-01, 4.35900688e-03, -4.08520073e-01,
          -2.38724962e-01, -1.68364197e-02, 1.09630242e-01,
          -2.54564077e-01, -1.96022894e-02, -1.54488817e-01,
          7.78239444e-02, 6.97664693e-02, -7.30800703e-02,
          -4.35135700e-02, -7.91050196e-02, 1.17313169e-01,
          -1.21432856e-01, -7.75572062e-02, -1.83624227e-03,
          -2.33226806e-01, -1.91999286e-01, 1.25454655e-02,
          3.65785748e-01, 1.00638151e-01, -1.25755370e-01,
          1.14131317e-01, 1.23442806e-01, 1.83876827e-01,
          -1.68276094e-02, 1.63959920e-01, -1.19805798e-01,
          5.48116937e-02, 8.62473343e-03, -4.42900136e-02,
          -1.11889467e-01, -5.23594320e-02 ]
      - [ 5.97675264e-01, -1.12671308e-01, -8.85061845e-02,
          -2.73830831e-01, -3.12109627e-02, -2.31644705e-01,
          -2.23540694e-01, -9.92862806e-02, -1.55729145e-01,
          1.18122280e-01, 1.35375261e-02, -4.57005538e-02,
          -9.40736681e-02, -1.26007229e-01, 5.37520014e-02,
          -1.18088908e-01, -9.57097709e-02, 1.19889081e-02,
          -2.19287992e-01, -1.44084334e-01, -5.67857735e-02,
          3.54540646e-01, 1.70278326e-01, -7.96107128e-02,
          1.28682733e-01, 1.77830145e-01, 1.81396917e-01,
          -5.27891479e-02, 9.92501676e-02, -9.79232714e-02,
          -1.95537098e-02, 4.67863027e-03, -1.59832165e-02,
          -6.26553372e-02, -2.15826221e-02 ]
      - [ 6.30321443e-01, -1.11591071e-01, -5.33865988e-02,
          -2.29256615e-01, -3.30403112e-02, -1.60288513e-01,
          -2.38409713e-01, -9.62049589e-02, -1.15874477e-01,
          1.71762690e-01, -1.29143603e-03, -8.07719603e-02,
          -8.63468423e-02, -6.69477731e-02, 8.57346952e-02,
          -1.67973816e-01, -9.04890597e-02, -6.18150365e-03,
          -2.18995363e-01, -1.42284483e-01, -2.44485885e-02,
          3.38395953e-01, 2.03013986e-01, -1.07774496e-01,
          1.10493585e-01, 1.83932334e-01, 1.67110309e-01, 5.50907943e-03,
          9.31074545e-02, -1.18858792e-01, -1.36796068e-02,
          1.46911433e-02, 3.72173171e-03, -4.65227254e-02,
          -3.53954509e-02 ]
      - [ 4.87455457e-01, -4.66948152e-02, -2.14028254e-01,
          -4.34343904e-01, -7.31389155e-04, -1.56508550e-01,
          -2.24514142e-01, -8.12653005e-02, -1.44065514e-01,
          7.57312123e-03, 7.41248485e-03, 4.06836309e-02,
          -2.13979691e-01, -6.83403239e-02, 1.08440995e-01,
          -1.23295330e-01, -1.11683682e-01, 6.05455860e-02,
          -1.87853396e-01, -1.17239550e-01, -1.04178578e-01,
          3.76180947e-01, 9.40850973e-02, -7.14265183e-02,
          6.63094595e-02, 1.03565253e-01, 2.09592447e-01,
          -8.91747978e-03, 1.43163204e-01, -9.56037939e-02,
          1.83267298e-03, -3.70380618e-02, -2.99407877e-02,
          -1.45739600e-01, -2.29339674e-02 ]
      - [ 4.25312310e-01, 2.70111054e-01, -1.41011804e-01,
          -3.45276326e-01, -2.61261705e-02, 1.76343229e-02,
          -4.00051147e-01, -4.43313681e-02, -1.89957976e-01,
          -3.47306244e-02, -8.34419671e-03, -1.07015781e-01,
          -8.31319392e-02, -9.08474922e-02, 7.75412172e-02,
          -1.89207077e-01, -1.54404089e-01, 7.47951344e-02,
          -2.29056805e-01, -1.22801103e-01, -5.03860880e-03,
          3.46706420e-01, 1.15907997e-01, -8.47166702e-02,
          1.01717114e-01, 1.61890924e-01, 1.59903035e-01,
          -5.82764670e-02, 1.14524797e-01, -9.97890159e-02,
          1.51879713e-02, -1.21053122e-02, -1.89102013e-02,
          -1.00646921e-01, -3.12773623e-02 ]
      - [ 5.81181526e-01, -1.96789339e-01, -2.85199612e-01,
          -1.77135229e-01, 3.51525843e-02, 1.22377962e-01,
          -3.33660394e-01, -1.68457013e-02, -1.63761228e-01,
          -1.81346759e-02, -8.46703816e-03, -6.29857257e-02,
          -4.64953482e-02, -1.03310958e-01, 8.04854780e-02,
          -1.04373835e-01, -6.62410557e-02, 5.04045859e-02,
          -2.65211731e-01, -1.26034558e-01, -1.98666137e-02,
          3.58399272e-01, 1.25520900e-01, -7.94488788e-02,
          5.15019894e-02, 8.77370536e-02, 1.86416656e-01, 3.16201225e-02,
          1.13703959e-01, -1.03956535e-01, 1.50871398e-02,
          -1.73606239e-02, -3.47769819e-02, -7.03985915e-02,
          -3.12235821e-02 ]
      - [ 5.87123752e-01, 1.15015022e-01, -1.70980588e-01,
          -2.69250143e-02, 1.57187372e-01, 1.46787018e-01,
          -8.92478302e-02, -8.78934115e-02, -2.09441289e-01,
          7.19218701e-02, 4.47532870e-02, -1.04757585e-01,
          -1.88976377e-01, -4.38344851e-02, 1.42311573e-01,
          -1.74178362e-01, -1.33022936e-02, 1.73637837e-01,
          -2.08503962e-01, -1.09664410e-01, 5.16653154e-03,
          3.45496207e-01, 1.68822691e-01, -1.59871295e-01,
          5.91428466e-02, 1.87224612e-01, 2.31604904e-01,
          -5.31783290e-02, 1.42888844e-01, -6.25938624e-02,
          5.68019086e-03, -8.50202963e-02, -2.36764159e-02,
          -1.00396127e-01, -5.81078753e-02 ]
      - [ 1.59137025e-02, -3.78127843e-02, -1.64376035e-01,
          -2.23720640e-01, 6.47832975e-02, 2.92783082e-02,
          -3.84765416e-01, -3.29327397e-02, 8.78985301e-02,
          7.45645240e-02, 8.47388506e-02, -4.84100617e-02,
          -2.06521526e-01, -1.68492332e-01, 1.81728423e-01,
          -1.74073458e-01, -3.51233818e-02, 1.06907032e-01,
          -2.09882215e-01, -2.33427450e-01, -5.05157262e-02,
          5.40667772e-01, 1.35894388e-01, -1.29448161e-01,
          1.17218293e-01, 1.61821470e-01, 2.67349720e-01,
          -7.52116553e-03, 1.53503284e-01, -1.31620541e-01,
          6.77370373e-03, -5.41644916e-03, 3.64267416e-02,
          -9.14547518e-02, -8.04629996e-02 ]
      - [ 6.07404709e-01, 7.97741562e-02, -1.00395396e-01,
          2.00626142e-02, 1.73292443e-01, 1.30308464e-01,
          -1.43921182e-01, -7.98052773e-02, -1.88833505e-01,
          5.88619523e-02, 4.57568578e-02, -1.19721174e-01,
          -2.05167383e-01, -4.11445461e-03, 1.55768901e-01,
          -2.16771796e-01, 8.44033435e-03, 1.36244819e-01,
          -1.89641461e-01, -1.09551154e-01, 2.58629359e-02,
          3.45625013e-01, 1.58033282e-01, -1.39676526e-01,
          3.21160369e-02, 1.56863481e-01, 2.33570278e-01,
          -3.85078751e-02, 1.63868248e-01, -8.75763819e-02,
          3.51254344e-02, -6.76525310e-02, -2.12445334e-02,
          -1.20384850e-01, -5.51869199e-02 ]
      - [ 6.47052944e-01, 2.77788211e-02, -8.03257674e-02,
          2.25481186e-02, 1.53795749e-01, 1.47651508e-01,
          -1.20130330e-01, -8.89104679e-02, -2.16233581e-01,
          4.06208858e-02, -2.17325520e-02, -7.19833374e-02,
          -2.14420095e-01, -4.97275479e-02, 1.48765087e-01,
          -1.70221373e-01, -1.82649551e-03, 1.38143331e-01,
          -1.88127473e-01, -8.53774548e-02, 3.48687894e-03,
          3.70996207e-01, 1.82597622e-01, -1.28093839e-01,
          2.58391965e-02, 1.30177230e-01, 2.40348652e-01,
          -8.56730714e-03, 8.87067765e-02, -8.31859112e-02,
          3.36733200e-02, -4.53802869e-02, 3.43066896e-03,
          -8.28871801e-02, -5.19275852e-02 ]
      - [ 6.53164566e-01, 2.36438401e-02, 6.63095936e-02,
          -3.90826119e-03, 1.83999434e-01, -9.46442932e-02,
          -2.07772613e-01, 2.86044180e-03, -1.63516149e-01,
          -2.34817881e-02, 4.46141474e-02, -1.53242454e-01,
          -1.34670913e-01, -6.90056607e-02, 1.62303910e-01,
          -2.56658822e-01, 1.56924650e-02, 6.11011721e-02,
          -2.02610999e-01, -8.63182321e-02, -1.30674941e-02,
          3.72455388e-01, 5.84375672e-02, -1.41869172e-01,
          3.92426811e-02, 1.13561682e-01, 2.07671776e-01,
          -1.13117471e-02, 1.44884452e-01, -7.36957937e-02,
          3.12137641e-02, -3.36541794e-02, -4.14737985e-02,
          -1.08063146e-01, -7.65545701e-04 ]
      - [ 1.96437594e-02, -4.49839942e-02, -1.52237549e-01,
          -2.27149040e-01, 6.54451549e-02, 4.36885916e-02,
          -3.85441869e-01, -4.40331846e-02, 8.51732418e-02,
          7.17482343e-02, 9.52180997e-02, -4.74940836e-02,
          -1.96939349e-01, -1.69713929e-01, 1.81145594e-01,
          -1.78624958e-01, -3.61305885e-02, 1.05324998e-01,
          -2.13023782e-01, -2.32865214e-01, -5.57555072e-02,
          5.38388550e-01, 1.32293507e-01, -1.24379076e-01,
          1.21089876e-01, 1.61463916e-01, 2.71366239e-01,
          -1.01736104e-02, 1.51803851e-01, -1.30962953e-01,
          2.64694006e-03, -1.26087954e-02, 3.22751366e-02,
          -9.77769271e-02, -8.18625912e-02 ]
      - [ 5.88480830e-01, -1.27129376e-01, 8.01416580e-03,
          -1.40462607e-01, 1.64585516e-01, -1.59047142e-01,
          -1.08022556e-01, 5.27020022e-02, -1.84561178e-01,
          1.72063671e-02, -3.54438946e-02, -1.03736289e-01,
          -1.18928097e-01, -1.32982090e-01, 1.58580109e-01,
          -1.96547225e-01, -2.96981278e-04, 1.81251511e-01,
          -2.22010374e-01, -1.20230451e-01, -3.85321192e-02,
          3.65206391e-01, 7.91712925e-02, -9.95462909e-02,
          5.92032932e-02, 2.01895952e-01, 2.87335932e-01, 2.85097789e-02,
          1.17871277e-01, -9.90082920e-02, 5.69935925e-02,
          -2.31962819e-02, -1.29545219e-02, -6.91386387e-02,
          -3.48465815e-02 ]
      - [ 7.07888976e-02, -3.67826186e-02, -1.92767814e-01,
          -1.67328924e-01, 5.10234311e-02, -3.34552079e-02,
          -4.09755468e-01, -6.68390095e-02, 9.18038934e-02,
          5.47952764e-02, 4.53428067e-02, -4.54714336e-02,
          -2.14671522e-01, -1.41074732e-01, 1.49640098e-01,
          -1.98463723e-01, -2.18499154e-02, 9.77090895e-02,
          -2.89858431e-01, -2.03690648e-01, -5.41305691e-02,
          4.80132192e-01, 1.77842826e-01, -2.06978619e-01,
          1.28318608e-01, 1.86426774e-01, 2.18439817e-01, 2.79437266e-02,
          1.82581425e-01, -1.50464267e-01, -2.86537968e-02,
          6.08620886e-03, 9.20592993e-03, -8.47678110e-02,
          -4.22973372e-02 ]
      - [ 5.31912088e-01, 5.02945744e-02, -1.12880701e-02,
          -3.97445142e-01, 1.64106060e-02, -1.89115889e-02,
          -1.36027753e-01, 4.74678632e-03, -2.05743805e-01,
          8.01771041e-03, -3.87532241e-03, -4.15798947e-02,
          -2.74799019e-01, -4.48480584e-02, 1.32855028e-01,
          -2.02173367e-01, 4.45352308e-02, -1.49702132e-02,
          -2.16811895e-01, -1.64482892e-01, -1.13412097e-01,
          3.08754116e-01, 1.01648234e-01, -1.33199319e-01,
          7.42457360e-02, 2.00040087e-01, 2.64159650e-01,
          -3.28243687e-03, 1.19264215e-01, -8.56136456e-02,
          3.41285169e-02, 8.81271437e-03, -5.31057119e-02,
          -6.02528006e-02, -2.47122091e-03 ]
      - [ 4.69268918e-01, -1.49626896e-01, -4.13979381e-01,
          -1.06885418e-01, -5.05158752e-02, -7.86354169e-02,
          -1.96394876e-01, -1.16480507e-01, -2.55531758e-01,
          -4.15614694e-02, 1.00910321e-01, -7.75759965e-02,
          -1.48811027e-01, -6.75002635e-02, 1.42091125e-01,
          -1.79591835e-01, -5.12093976e-02, 6.26591519e-02,
          -1.39261901e-01, -8.47658738e-02, -5.73494583e-02,
          4.01821405e-01, 1.33537352e-01, -1.62505001e-01,
          8.64932239e-02, 1.68347016e-01, 2.34993383e-01,
          -6.37438744e-02, 3.35040502e-02, -5.37180603e-02,
          -2.72529805e-03, 4.68369434e-03, -1.97631195e-02,
          -6.57477677e-02, -7.33286962e-02 ]
      - [ 5.19614339e-01, -1.94633082e-02, -3.64632159e-01,
          -9.00499001e-02, 3.86819337e-03, 2.87931450e-02,
          -1.13421381e-01, -7.25450441e-02, -2.37544924e-01,
          3.73088419e-02, 4.47188765e-02, -8.91536102e-02,
          -4.51711044e-02, -6.47270381e-02, 1.56331971e-01,
          -1.71727017e-01, 6.29504919e-02, 9.74847097e-03,
          -1.46148980e-01, -2.04293773e-01, -4.79053855e-02,
          3.83700371e-01, 9.63890776e-02, -1.67833239e-01,
          1.06053554e-01, 2.42281199e-01, 2.79364884e-01,
          -4.67772782e-02, 1.37132198e-01, -4.73653562e-02,
          1.89451594e-02, -2.94134673e-02, -3.76443932e-04,
          -9.81180593e-02, -7.37852380e-02 ]
      - [ 6.50764346e-01, -3.19564156e-02, 5.00087887e-02,
          -8.30984414e-02, 1.54474691e-01, -1.58416823e-01,
          -1.38448253e-01, 3.43376026e-02, -1.84947461e-01,
          4.62376606e-03, 2.88162939e-02, -1.51209518e-01,
          -9.81062427e-02, -1.06878571e-01, 1.49451032e-01,
          -2.12136731e-01, 3.40965353e-02, 1.23189367e-01,
          -2.20639348e-01, -8.83651674e-02, 5.70639223e-03,
          3.76157284e-01, 7.97888488e-02, -1.54412940e-01,
          5.89962490e-02, 1.48368508e-01, 2.30213016e-01,
          -4.21670917e-03, 1.03500627e-01, -6.92962855e-02,
          3.74652855e-02, -5.66544719e-02, -4.33180742e-02,
          -7.33678117e-02, -2.12116330e-03 ]
      - [ 6.62851036e-02, 1.75138339e-02, -1.44858614e-01,
          -2.21368536e-01, 5.65960333e-02, -2.00252458e-02,
          -3.93110991e-01, -1.25737518e-01, 7.79314488e-02,
          4.53254469e-02, -7.55798956e-03, -1.44248959e-02,
          -1.48928061e-01, -1.52922377e-01, 2.30250940e-01,
          -2.02017516e-01, -4.12100069e-02, 9.35739279e-02,
          -2.67047316e-01, -2.14719772e-01, -4.23173718e-02,
          5.17843485e-01, 1.37919262e-01, -8.28704685e-02,
          1.07390657e-01, 1.60488099e-01, 2.99785614e-01,
          -3.34227569e-02, 1.61612138e-01, -1.03052787e-01,
          -3.06028705e-02, -7.19076619e-02, -2.20339447e-02,
          -5.36721237e-02, -7.32961148e-02 ]
      - [ 7.74040520e-02, 5.86227700e-03, -1.24387078e-01,
          -2.24846080e-01, 5.91340177e-02, 2.31196545e-03,
          -4.08884466e-01, -1.33250460e-01, 8.09153840e-02,
          3.49174887e-02, 2.14724205e-05, -1.60641838e-02,
          -1.37568116e-01, -1.44534856e-01, 2.22774073e-01,
          -2.01895565e-01, -3.56347002e-02, 9.47579294e-02,
          -2.68603295e-01, -2.00552210e-01, -4.68996577e-02,
          5.17552376e-01, 1.26582086e-01, -7.48323202e-02,
          1.13087498e-01, 1.68669626e-01, 3.05772781e-01,
          -3.89332250e-02, 1.60666510e-01, -1.03553899e-01,
          -3.04352865e-02, -6.71003908e-02, -1.65354665e-02,
          -5.84568456e-02, -7.11588115e-02 ]
      - [ 5.43257177e-01, 4.36219200e-02, -3.52770627e-01,
          -1.15003325e-01, 7.16993064e-02, 6.18293211e-02,
          -6.53455555e-02, -1.10321514e-01, -1.60832629e-01,
          -4.44923528e-02, 7.83027560e-02, -5.91238886e-02,
          -8.93461853e-02, -8.88155773e-02, 9.11969990e-02,
          -1.91192240e-01, 1.26937381e-03, 1.63164362e-01,
          -2.76965410e-01, -1.92716286e-01, -8.14722478e-02,
          3.44405979e-01, 1.38121799e-01, -1.66419312e-01,
          1.08797409e-01, 1.51837423e-01, 2.12691560e-01,
          -5.69106303e-02, 1.40151352e-01, -8.98919627e-02,
          4.59010638e-02, -5.43963313e-02, -6.82605524e-03,
          -8.10497254e-02, -8.00194517e-02 ]
      - [ 4.56492901e-02, -7.45973736e-02, -1.82615399e-01,
          -2.01220319e-01, 4.68535982e-02, -1.74481480e-03,
          -3.84498626e-01, -6.05350100e-02, 9.11156014e-02,
          7.42050558e-02, 5.70605136e-02, -5.55273332e-02,
          -2.07566425e-01, -1.63362175e-01, 1.54333711e-01,
          -1.95960015e-01, -3.94488424e-02, 9.98042226e-02,
          -2.92071700e-01, -2.19407484e-01, -6.61671236e-02,
          4.87687349e-01, 1.60022140e-01, -1.94753781e-01,
          1.32784352e-01, 1.60313696e-01, 2.39147872e-01, 1.51368370e-02,
          1.70716003e-01, -1.42836824e-01, -1.65205766e-02,
          -2.23381026e-03, 3.98988277e-02, -8.95889252e-02,
          -4.19808999e-02 ]
      - [ 5.81000447e-01, -1.40088741e-02, -1.14394620e-01,
          -1.95086136e-01, 6.39742762e-02, 1.96543783e-01,
          -1.69435725e-01, 6.38196897e-03, -1.33855984e-01,
          4.24737558e-02, 3.18611637e-02, -1.10114925e-01,
          -2.32264474e-01, -1.22046001e-01, 1.27242133e-01,
          -1.78304598e-01, -6.48814663e-02, 1.47993103e-01,
          -2.23307028e-01, -2.04154953e-01, 6.66093156e-02,
          3.19125503e-01, 2.13046819e-01, -5.15839458e-02,
          1.70725778e-01, 1.68327019e-01, 1.85268775e-01, 2.15544086e-02,
          7.53358528e-02, -8.37419331e-02, -3.99104320e-02,
          5.78035321e-03, -3.91188785e-02, -9.05025229e-02,
          -4.06037755e-02 ]
      - [ 3.85619141e-02, -2.50069886e-01, 3.30340452e-02,
          -2.13428274e-01, 3.49870957e-02, 1.86669648e-01,
          -2.64604300e-01, 4.79406491e-02, -2.77477235e-01,
          1.30999566e-03, 1.23624824e-01, -8.62343516e-03,
          -1.34347618e-01, -1.64790049e-01, 2.05921039e-01,
          -2.36489549e-01, -4.77628037e-02, 5.30879088e-02,
          -2.26694405e-01, -1.64690018e-01, -1.27483517e-01,
          4.24808383e-01, 1.79066673e-01, -6.53716773e-02,
          1.42834350e-01, 2.12157801e-01, 2.77601302e-01, 2.07424723e-02,
          1.56730905e-01, -1.31076023e-01, -4.28129621e-02,
          -1.13900810e-01, -5.66874109e-02, -1.36592388e-01,
          -8.40819106e-02 ]
      - [ 4.36320044e-02, -5.67458197e-02, -2.05391690e-01,
          -2.26989970e-01, -1.16781378e-03, -5.94643503e-02,
          -2.85606444e-01, 9.58881974e-02, -9.44084749e-02,
          1.24033645e-01, 6.09709248e-02, -7.95426294e-02,
          -2.67727852e-01, -1.21793136e-01, 9.78824571e-02,
          -2.33164057e-01, -2.02413707e-04, 1.14842884e-01,
          -3.14398915e-01, -2.41249591e-01, -6.09842837e-02,
          4.56293762e-01, 1.25997454e-01, -1.28351092e-01,
          1.54964179e-01, 2.10938573e-01, 2.84120411e-01, 2.15236694e-02,
          1.66264683e-01, -6.98091909e-02, 2.65557431e-02,
          5.12580387e-02, 1.21856369e-02, -1.47553712e-01,
          -9.30238701e-03 ]
      - [ 4.00247313e-02, 1.17335562e-02, -2.82604754e-01,
          -1.95797592e-01, 1.08747473e-02, -1.04618326e-01,
          -2.80736446e-01, 1.33002102e-01, -1.08038135e-01,
          9.13622901e-02, -8.17716308e-03, -1.12891078e-01,
          -2.83098042e-01, -5.24412245e-02, 1.09521709e-01,
          -2.20309317e-01, -4.59615048e-03, 1.12144582e-01,
          -3.19492638e-01, -2.05005094e-01, -2.31442545e-02,
          4.38423693e-01, 1.30210921e-01, -1.03562415e-01,
          1.47594959e-01, 2.22413883e-01, 3.02419513e-01,
          -1.29669067e-02, 1.69278115e-01, -5.91589585e-02,
          3.55800390e-02, 4.57053855e-02, -1.26245981e-02,
          -1.38784796e-01, -3.60085256e-02 ]
      - [ 6.07759833e-01, 5.49809933e-02, -1.59761637e-01,
          -1.87678665e-01, 3.45749557e-02, -2.87955850e-02,
          -9.37937796e-02, -1.62030160e-01, -1.32286370e-01,
          1.46054700e-02, 4.67965752e-02, -3.00803017e-02,
          -1.59759119e-01, -1.25676200e-01, 1.13342017e-01,
          -2.15205774e-01, -5.43828495e-02, 1.79582298e-01,
          -2.44806886e-01, -1.67115152e-01, -3.22562158e-02,
          3.78446221e-01, 1.97120279e-01, -6.40916973e-02,
          8.86195228e-02, 1.32018015e-01, 1.70703486e-01, 6.90189749e-02,
          4.37650830e-02, -1.16313949e-01, 2.80932449e-02,
          7.06130043e-02, 1.06761632e-02, -4.11820821e-02,
          -1.26454026e-01 ]
      - [ 1.28803462e-01, 2.51350939e-01, -1.48405239e-01,
          2.47289613e-02, -2.84182243e-02, -1.82398632e-01,
          -2.81650692e-01, -1.89946033e-02, -2.70077586e-01,
          -9.02316496e-02, 1.07608952e-01, 4.18871455e-02,
          -2.24120185e-01, -1.31382391e-01, 6.91507012e-02,
          -2.63173699e-01, -6.92288205e-02, 5.33971898e-02,
          -2.66384661e-01, -1.76761359e-01, 5.86951105e-03,
          4.13929641e-01, 1.34988859e-01, -1.05601333e-01,
          1.48553491e-01, 2.03895703e-01, 3.07855129e-01, 4.28098254e-02,
          2.27932006e-01, -1.15432948e-01, 3.43665518e-02,
          1.57060362e-02, 2.52613071e-02, -9.83405188e-02,
          4.68848366e-03 ]
      - [ 5.83911657e-01, -1.78659439e-01, 4.46919128e-02,
          5.88230789e-02, 1.43276185e-01, 1.73846949e-02,
          -1.26560867e-01, 6.58416608e-03, -1.63070425e-01,
          -1.19424261e-01, -5.75075820e-02, -9.33759660e-03,
          -8.81423652e-02, -9.56562832e-02, 1.18729427e-01,
          -2.47802660e-01, -8.47200602e-02, 1.80027969e-02,
          -1.63752973e-01, -1.09876476e-01, -9.79382545e-02,
          4.52406377e-01, 1.42457858e-01, -1.72248080e-01,
          1.28397688e-01, 8.81572217e-02, 2.45111316e-01, 1.05452146e-02,
          1.29411638e-01, -1.24613002e-01, -2.28222888e-02,
          -3.50795723e-02, -3.19745243e-02, -1.09551489e-01,
          -7.74117410e-02 ]
      - [ 3.95451576e-01, 8.59592226e-04, -1.73977464e-01,
          -3.98077965e-01, 1.22781381e-01, 2.39730044e-03,
          -1.32993519e-01, 5.01661301e-02, -1.75603762e-01,
          -4.76043485e-02, 9.02325672e-04, -1.13610201e-01,
          -1.47854879e-01, -1.38085037e-01, 1.94822386e-01,
          -1.94583237e-01, 3.62893716e-02, 1.63727641e-01,
          -1.85503051e-01, -3.19255665e-02, -6.08158410e-02,
          4.61378694e-01, 2.49443680e-01, -4.60261069e-02,
          9.18363333e-02, 1.32628694e-01, 1.70210421e-01, 9.66862589e-02,
          1.25246748e-01, -1.48037940e-01, 8.61111257e-05,
          -6.40417729e-03, -4.47219424e-02, -6.72110021e-02,
          -6.22262470e-02 ]
      - [ 6.09380364e-01, -5.40426746e-02, -9.34609100e-02,
          -1.70634896e-01, 1.00078071e-02, -3.49379107e-02,
          -1.61572352e-01, 1.18828773e-01, -1.47978693e-01,
          4.19330113e-02, 3.06660272e-02, -1.08855374e-01,
          -1.27385974e-01, -1.64323047e-01, 2.09608719e-01,
          -2.10862577e-01, -2.54262742e-02, 1.87290326e-01,
          -2.23891601e-01, -1.29291996e-01, -6.12096570e-04,
          3.83920163e-01, 6.10171668e-02, -8.61289352e-02,
          1.54481784e-01, 1.60518348e-01, 1.88817456e-01,
          -1.25240320e-02, 1.10451847e-01, 1.60006415e-02,
          -4.14105877e-02, -3.08394618e-02, -1.52326431e-02,
          -1.11859791e-01, -6.20715916e-02 ]
      - [ 6.34204820e-02, 2.36583203e-01, -1.70757025e-01,
          9.89389513e-03, -2.98591070e-02, -1.95806608e-01,
          -2.57385552e-01, -5.71282618e-02, -2.82623410e-01,
          -5.36594503e-02, 4.75396514e-02, 4.64958213e-02,
          -2.29093477e-01, -1.53056696e-01, 1.02162369e-01,
          -2.53163844e-01, -6.51321039e-02, 3.29379328e-02,
          -2.70584464e-01, -2.24633217e-01, 7.28175230e-03,
          4.19552445e-01, 1.48564696e-01, -1.13106377e-01,
          1.57445043e-01, 2.14499712e-01, 2.85805404e-01, 5.83896711e-02,
          2.18356729e-01, -8.24779421e-02, 3.51982862e-02,
          1.45600652e-02, -1.21995434e-02, -1.11079231e-01,
          1.15115279e-02 ]
      - [ 5.34131229e-01, 4.02495302e-02, -2.14423746e-01,
          -2.28474215e-01, 8.44499990e-02, -1.62834719e-01,
          -1.62486359e-01, -4.10650484e-02, -1.26769304e-01,
          -1.08904421e-01, -1.09049352e-02, -7.49300420e-02,
          -6.62926435e-02, -1.30147889e-01, 1.99094161e-01,
          -1.82498813e-01, -1.23895518e-01, 1.94452301e-01,
          -1.67626947e-01, -1.40208796e-01, -1.27804816e-01,
          4.41986978e-01, 1.19647793e-01, -5.78607842e-02,
          1.08714141e-01, 9.66809988e-02, 1.63899571e-01, 6.70355037e-02,
          1.25136822e-01, -4.48131226e-02, -5.06990030e-03,
          1.43000809e-02, -7.97261670e-03, -5.22265434e-02,
          -1.47473559e-01 ]
      - [ 5.50927073e-02, 3.02220155e-02, -1.94334432e-01,
          -2.37991378e-01, -1.92164938e-04, -1.81540679e-02,
          -2.30855510e-01, -1.97897404e-01, -1.54584527e-01,
          8.94554704e-02, 9.57006030e-03, 5.99144259e-03,
          -1.17706276e-01, -1.56500652e-01, 2.87964582e-01,
          -2.11525470e-01, -1.73882265e-02, 9.32936147e-02,
          -2.36525521e-01, -2.36264944e-01, -8.93192738e-02,
          4.96286720e-01, 1.77354574e-01, -1.05264023e-01,
          1.38946801e-01, 2.13956431e-01, 2.66296685e-01, 2.35738885e-02,
          1.56514317e-01, -1.13688253e-01, 1.02598891e-02,
          -3.54294404e-02, -6.54559359e-02, -9.57913324e-02,
          -6.66130185e-02 ]
      - [ 1.04119917e-02, -4.62722890e-02, -1.43253878e-01,
          -3.47133547e-01, 4.99623492e-02, 2.44710315e-02,
          -2.01157898e-01, -2.70490259e-01, -1.91845253e-01,
          4.64886427e-02, 2.28515379e-02, -1.04365446e-01,
          -8.60066563e-02, -8.42457935e-02, 2.24385366e-01,
          -2.45128989e-01, 1.82292368e-02, 8.91050696e-02,
          -2.34711856e-01, -1.45175070e-01, -1.12169720e-01,
          4.81726080e-01, 1.80352509e-01, -1.38184741e-01,
          1.23355210e-01, 2.40481317e-01, 2.38024712e-01, 3.77669744e-03,
          1.68736681e-01, -1.00994907e-01, -1.69316810e-02,
          -2.98817549e-02, -5.10933399e-02, -6.57799318e-02,
          -8.65004361e-02 ]
      - [ 4.26303118e-01, -5.03954552e-02, -3.81894648e-01,
          -1.30491212e-01, 1.04503989e-01, -4.14797999e-02,
          -1.28892452e-01, -1.58397973e-01, -2.17098206e-01,
          -9.33716819e-02, -1.54289778e-03, -1.20806314e-01,
          -1.81858301e-01, -1.00125074e-01, 1.49022818e-01,
          -2.55585253e-01, -4.59419005e-03, 1.16353542e-01,
          -3.00735712e-01, -9.03238654e-02, 7.69494399e-02,
          4.08883423e-01, 9.14015174e-02, -6.68102950e-02,
          1.32091105e-01, 1.04227774e-01, 1.57118693e-01, 4.90797460e-02,
          1.62227586e-01, -1.74682159e-02, 7.28731230e-03,
          -7.06445277e-02, -1.37893399e-02, -1.06406070e-01,
          -2.76440680e-02 ]
      - [ 3.78243715e-01, 1.28113940e-01, -2.14869335e-01,
          -3.92053694e-01, 1.27274171e-01, 1.30105540e-02,
          -2.25546584e-01, -6.45102141e-03, -1.16138153e-01,
          -1.21635996e-01, -7.27068726e-03, -1.06202923e-01,
          -1.10637985e-01, -1.27327247e-02, 1.79907560e-01,
          -2.28202254e-01, -8.41711238e-02, 9.70194116e-02,
          -2.21583128e-01, -1.29193366e-01, -6.01530112e-02,
          4.34105664e-01, 2.43650824e-01, -5.78133352e-02,
          7.79284686e-02, 1.10918760e-01, 1.25786737e-01, 5.56685962e-02,
          1.58583373e-01, -1.71133965e-01, 8.47092364e-04,
          2.34918110e-02, 1.99294966e-02, -6.68652207e-02,
          -5.18308394e-02 ]
      - [ 5.67333162e-01, -1.06365820e-02, -2.79101789e-01,
          -1.97736159e-01, 6.49756119e-02, -7.30094016e-02,
          -1.13004833e-01, -1.36567175e-01, -9.50476751e-02,
          -2.80110966e-02, 6.57452866e-02, -3.66566777e-02,
          -1.35258526e-01, -9.86787081e-02, 7.46040046e-02,
          -2.23559603e-01, -4.28442955e-02, 1.79217085e-01,
          -3.21325034e-01, -1.77243009e-01, -6.58188015e-02,
          3.88994783e-01, 1.46553427e-01, -6.68787509e-02,
          8.58790129e-02, 1.05689354e-01, 1.36109784e-01, 6.54588789e-02,
          4.51461561e-02, -8.99936855e-02, 1.69831328e-02,
          3.51170562e-02, 4.55784751e-03, -6.36033267e-02,
          -1.16995379e-01 ]
      - [ 1.47724465e-01, 2.40328684e-01, -1.43405735e-01,
          2.14285012e-02, -2.24177446e-02, -1.75509930e-01,
          -3.02562326e-01, -2.24959180e-02, -2.62084156e-01,
          -8.92603323e-02, 1.18978754e-01, 4.19620462e-02,
          -2.16107875e-01, -1.20414540e-01, 5.59832156e-02,
          -2.63458401e-01, -5.63572533e-02, 6.12199754e-02,
          -2.75587589e-01, -1.71405628e-01, -1.19396262e-02,
          4.09709811e-01, 1.51352093e-01, -1.12016901e-01,
          1.54320061e-01, 2.01801673e-01, 2.93767691e-01, 5.36233447e-02,
          2.41810739e-01, -1.08678289e-01, 3.04122493e-02,
          1.62640456e-02, -2.09714781e-04, -9.39045176e-02,
          1.77047879e-03 ]
      - [ 1.26031741e-01, -7.86793903e-02, -2.92079058e-02,
          -2.86059141e-01, 6.20792322e-02, 4.24708053e-02,
          -1.72408283e-01, -8.60920697e-02, -2.35743776e-01,
          -4.15954515e-02, 3.87392975e-02, -1.01339065e-01,
          -1.69980973e-01, -9.40091088e-02, 2.55328149e-01,
          -2.11377904e-01, -6.06441759e-02, 3.29780169e-02,
          -2.94146597e-01, -1.98787555e-01, -1.17073609e-02,
          4.90776449e-01, 1.57637119e-01, -1.44854590e-01,
          1.23588726e-01, 2.22995013e-01, 3.16905171e-01,
          -2.82296650e-02, 1.51076093e-01, -5.58342785e-02,
          3.17018963e-02, -3.70034352e-02, -2.54625604e-02,
          -1.30427271e-01, -7.70164132e-02 ]
      - [ 6.33069336e-01, 1.54922590e-01, -8.45696628e-02,
          -2.23922074e-01, -3.05235311e-02, -1.36174694e-01,
          -1.52989835e-01, -7.18654767e-02, -2.09585413e-01,
          -1.14077004e-02, 3.76619287e-02, -9.49563906e-02,
          -1.91757828e-01, -1.01725645e-01, 1.58329725e-01,
          -5.13753965e-02, -3.54899000e-03, 8.61655846e-02,
          -1.84370726e-01, -1.28646523e-01, -6.69022202e-02,
          4.09546971e-01, 1.27750352e-01, -2.62964442e-02,
          1.21121824e-01, 8.38672817e-02, 2.07094982e-01, 7.69877480e-03,
          1.01401620e-01, -7.99543634e-02, 2.56998166e-02,
          -4.39921953e-02, -9.09180287e-03, -9.41238180e-02,
          -2.24628150e-02 ]
      - [ 6.11499131e-01, -1.48939639e-01, -2.26615012e-01,
          -2.09296599e-01, 1.98638104e-02, 9.97357741e-02,
          -1.59915969e-01, -3.73551913e-04, -1.79946095e-01,
          4.45404202e-02, -4.11604457e-02, -1.11294955e-01,
          -7.39680529e-02, -1.44400790e-01, 6.68997094e-02,
          -1.28911823e-01, 8.58630612e-03, 7.45152310e-02,
          -2.16826528e-01, -1.98813438e-01, -1.96937402e-03,
          3.44636828e-01, 1.56685621e-01, -1.03470474e-01,
          1.52494624e-01, 1.23511188e-01, 2.14092165e-01,
          -1.79589409e-02, 1.45059153e-01, -5.54702729e-02,
          -1.20437145e-02, -1.80225528e-03, -2.04766877e-02,
          -1.18909784e-01, -8.51695761e-02 ]
      - [ 4.74655151e-01, -3.09607357e-01, -1.65560424e-01,
          -4.20420952e-02, -1.31398141e-01, -3.93168107e-02,
          -3.34299594e-01, -4.85567674e-02, -2.29384571e-01,
          -5.33504970e-02, -3.88149582e-02, -4.75153588e-02,
          -1.78344980e-01, -3.32182534e-02, 2.87907213e-01,
          -1.60974160e-01, -7.60989711e-02, 5.69062307e-02,
          -1.74496904e-01, -1.85189947e-01, -5.92125393e-02,
          3.60993475e-01, 1.28679603e-01, -8.61716941e-02,
          1.00912444e-01, 1.51523769e-01, 1.46257281e-01,
          -4.47663246e-03, 8.36926252e-02, -7.64940754e-02,
          2.69410536e-02, -5.34260198e-02, -2.29219273e-02,
          -1.12189300e-01, -1.09125618e-02 ]
      - [ 1.39495507e-01, 7.84855857e-02, -1.67472363e-01,
          -1.50599971e-01, 2.06418224e-02, -3.65039520e-02,
          -2.15791151e-01, 3.95681597e-02, -2.09232718e-01,
          1.40199382e-02, 5.39982170e-02, -1.18117221e-01,
          -2.31875509e-01, -1.31211832e-01, 1.30386919e-01,
          -2.10658744e-01, -5.33629954e-02, 7.53751844e-02,
          -1.98183477e-01, -2.13266030e-01, -5.16995899e-02,
          5.59165359e-01, 1.85087457e-01, -1.23796925e-01,
          1.21860392e-01, 2.40699917e-01, 3.01138461e-01, 3.24276052e-02,
          1.50020823e-01, -1.17225088e-01, 3.85885574e-02,
          -2.41371877e-02, -4.05426845e-02, -1.15659088e-01,
          -6.69916645e-02 ]
      - [ 1.52645573e-01, -8.84304568e-02, -1.30820461e-02,
          -2.76794851e-01, 5.55114895e-02, 5.61698265e-02,
          -1.77853838e-01, -8.37812424e-02, -2.33465046e-01,
          -6.28392026e-02, 5.31222224e-02, -8.01034421e-02,
          -1.58276811e-01, -7.87593275e-02, 2.34122083e-01,
          -2.20776781e-01, -6.15940057e-02, 2.98505519e-02,
          -2.82073468e-01, -1.96312428e-01, -1.11894868e-02,
          4.87513244e-01, 1.63859576e-01, -1.45709857e-01,
          1.43143192e-01, 2.38406181e-01, 3.23879302e-01,
          -1.73836686e-02, 1.54487908e-01, -4.62413430e-02,
          2.79037766e-02, -3.21186595e-02, -4.15958390e-02,
          -1.40794009e-01, -6.43533692e-02 ]
      - [ 5.77314556e-01, -7.45348707e-02, 3.38819763e-03,
          -3.02602887e-01, -4.36060503e-02, -1.17374182e-01,
          -2.16788575e-01, 4.14414592e-02, -1.99508891e-01,
          7.39058480e-02, -9.48559260e-04, -6.73454478e-02,
          -9.94829386e-02, -6.05103448e-02, 1.47656009e-01,
          -2.27124944e-01, 5.48074581e-02, 1.18584804e-01,
          -1.64435014e-01, -1.50587469e-01, 3.57843637e-02,
          4.24920499e-01, 1.52489990e-01, -1.09513685e-01,
          6.07503280e-02, 6.67512119e-02, 1.72244176e-01, 2.83758529e-03,
          1.35909632e-01, -5.49825318e-02, 2.87960600e-02,
          -3.87319103e-02, -5.22755273e-02, -9.94234681e-02,
          -1.01493374e-01 ]
      - [ 6.28902912e-01, -1.48952469e-01, -1.19110264e-01,
          -1.23193279e-01, 2.32233126e-02, 1.61256835e-01,
          -1.50504917e-01, -1.38110539e-03, -1.97744310e-01,
          1.06388807e-01, -7.22831115e-02, -1.05097197e-01,
          -1.66315302e-01, -1.27921596e-01, 1.01824395e-01,
          -1.44888625e-01, -1.80144783e-03, 9.26619247e-02,
          -1.93302229e-01, -1.31964251e-01, -1.17798829e-02,
          3.66964459e-01, 1.77892268e-01, -1.15721479e-01,
          1.76417992e-01, 1.24461450e-01, 1.70379221e-01,
          -1.91316288e-02, 1.52014241e-01, -5.27330153e-02,
          5.12781600e-03, -1.10141719e-02, -4.87355329e-02,
          -1.11933433e-01, -3.87018062e-02 ]
      - [ 5.81665039e-01, 1.97987631e-01, -1.21472247e-01,
          -4.52814251e-02, -1.12122476e-01, 8.77577141e-02,
          -1.90004200e-01, 6.47682091e-03, -1.30715802e-01,
          -5.49546778e-02, 3.12197022e-03, -1.79524580e-03,
          -7.65989572e-02, -1.88193209e-02, 1.83820173e-01,
          -2.08405405e-01, -1.36641026e-01, 4.35949937e-02,
          -1.38597354e-01, -1.73691526e-01, 1.71082444e-03,
          3.96005243e-01, 2.17326462e-01, -1.35406330e-01,
          6.93431720e-02, 1.32648408e-01, 2.11199239e-01, 1.20511256e-01,
          1.50075734e-01, -1.27265409e-01, -1.68841500e-02,
          -5.04088327e-02, -2.32182126e-02, -1.43956795e-01,
          -9.48809683e-02 ]
      - [ 1.23297803e-01, -1.04187422e-01, -1.13736019e-01,
          -1.89674273e-01, 2.98715904e-02, 2.19284440e-03,
          -1.83918163e-01, -1.03120349e-01, -2.41530508e-01,
          -1.26596482e-03, -2.25932822e-02, -9.54162180e-02,
          -1.82084098e-01, -1.44733608e-01, 2.50524133e-01,
          -2.06455216e-01, -5.28668277e-02, 6.34486452e-02,
          -3.71285439e-01, -2.18755379e-01, -5.83269037e-02,
          4.54411119e-01, 1.57422453e-01, -1.61397263e-01,
          1.04782231e-01, 2.07328811e-01, 2.94245273e-01,
          -1.71684083e-02, 1.61445528e-01, -7.72145689e-02,
          2.44834162e-02, -3.85457687e-02, -8.97843484e-03,
          -1.47916451e-01, -4.55020592e-02 ]
      - [ 1.59469202e-01, -1.39641032e-01, 3.65003152e-03,
          -3.11318964e-01, 1.05389282e-01, 6.92381710e-02,
          -1.47751123e-01, -8.00180957e-02, -2.61012733e-01,
          -9.09946486e-02, 9.63852257e-02, -1.45234853e-01,
          -1.56839073e-01, -6.24108613e-02, 1.84858531e-01,
          -2.19024733e-01, -6.72660768e-02, 4.13103141e-02,
          -2.47488856e-01, -1.53056219e-01, -1.61566269e-02,
          4.85501438e-01, 1.96825594e-01, -1.63907230e-01,
          1.46703094e-01, 2.16342285e-01, 2.57270038e-01, 2.19591018e-02,
          1.77437767e-01, -6.53603747e-02, -3.52008283e-06,
          -3.52954417e-02, -5.77195510e-02, -1.50290206e-01,
          -7.85544589e-02 ]
      - [ 5.32707572e-01, -4.11875509e-02, -3.68277580e-02,
          -3.94635111e-01, -4.58660498e-02, -1.00834757e-01,
          -2.28260353e-01, 6.62976205e-02, -2.35671535e-01,
          3.47149223e-02, -1.23672131e-02, -1.62997674e-02,
          -1.26815826e-01, -8.73055011e-02, 1.63363069e-01,
          -1.72277093e-01, 6.34293184e-02, 1.32702038e-01,
          -1.52517945e-01, -1.51939183e-01, -2.78198975e-03,
          4.09268349e-01, 1.26123354e-01, -1.03729971e-01,
          7.06146806e-02, 7.39602074e-02, 2.03290179e-01,
          -5.36627043e-03, 1.35872021e-01, -3.45946513e-02,
          4.41682013e-03, -5.25775962e-02, -3.53674926e-02,
          -1.03533216e-01, -5.52040786e-02 ]
      - [ 4.12822545e-01, 1.77702811e-02, -1.48630768e-01,
          -4.64610904e-01, -4.49491479e-02, 3.25204842e-02,
          -2.43870765e-01, 7.72203952e-02, -2.16884390e-01,
          6.49044365e-02, -5.09737171e-02, -1.34153450e-02,
          -1.21334478e-01, -5.80730438e-02, 1.77138463e-01,
          -1.98063210e-01, -7.36885369e-02, 8.49157199e-02,
          -2.07774952e-01, -1.89664721e-01, -8.41957889e-03,
          3.52509111e-01, 1.06608249e-01, -1.25236884e-01,
          9.67775956e-02, 1.27973914e-01, 2.78469622e-01,
          -3.07432488e-02, 9.45510119e-02, -9.86356139e-02,
          -8.63429159e-03, 9.76260100e-03, -3.61789316e-02,
          -1.09217837e-01, -2.41916925e-02 ]
      - [ 6.29368186e-01, 1.63798720e-01, -6.61587641e-02,
          -1.90732360e-01, -2.19155345e-02, -1.56473666e-01,
          -1.52446240e-01, -8.17615241e-02, -2.13783011e-01,
          6.24082563e-03, 4.68433537e-02, -1.11249983e-01,
          -1.79479390e-01, -9.89263952e-02, 1.64136484e-01,
          -7.69383311e-02, 4.27975226e-03, 8.84082988e-02,
          -1.86765358e-01, -1.29271403e-01, -5.52839041e-02,
          4.11566943e-01, 1.27460808e-01, -1.78018454e-02,
          1.21765926e-01, 7.94846639e-02, 2.02927232e-01, 2.04623095e-03,
          1.06336415e-01, -9.27350223e-02, 4.62893173e-02,
          -4.67239283e-02, -7.19958730e-03, -1.00938171e-01,
          -3.18243541e-02 ]
      - [ 5.16704023e-01, 6.08465709e-02, -3.64489377e-01,
          -1.89772293e-01, -3.09565701e-02, 3.09000164e-02,
          -1.81278288e-01, -1.19022891e-01, -2.37006813e-01,
          4.38346826e-02, 1.00889839e-01, -5.53364344e-02,
          -1.16254777e-01, -8.17494392e-02, 1.15329273e-01,
          -1.57821000e-01, 5.69919776e-03, 1.43895537e-01,
          -2.89170057e-01, -1.61080137e-01, -5.88611588e-02,
          3.13988090e-01, 1.33940354e-01, -1.32145330e-01,
          9.32644829e-02, 8.70111510e-02, 2.36132801e-01, 9.66624077e-03,
          1.00757994e-01, -1.22143820e-01, 1.12355435e-02,
          -2.67832987e-02, -1.41650606e-02, -9.29760784e-02,
          -8.44075605e-02 ]
      - [ 5.78654945e-01, 1.10707730e-01, -2.32280403e-01,
          -8.35461393e-02, -2.21394543e-02, 1.20154388e-01,
          -1.84172228e-01, -1.25807703e-01, -2.36415684e-01,
          1.03654258e-01, 4.45770510e-02, -7.32025653e-02,
          -2.23550633e-01, -5.64629175e-02, 1.86698541e-01,
          -1.77326024e-01, 7.63974478e-03, 1.34005398e-01,
          -2.37329736e-01, -1.09772079e-01, -7.22372308e-02,
          3.37722927e-01, 1.30449697e-01, -8.44687000e-02,
          8.37069005e-02, 8.96154344e-02, 2.21383482e-01, 1.06482077e-02,
          9.03517678e-02, -1.19598344e-01, 1.97067950e-02,
          -2.16091350e-02, 1.27631717e-03, -1.12237588e-01,
          -6.28200993e-02 ]
      - [ 6.31345809e-01, -1.79830775e-01, -3.93013880e-02,
          -7.49729425e-02, 2.10281536e-02, 1.19424850e-01,
          -2.09244043e-01, 1.37332210e-03, -2.11600617e-01,
          1.18143044e-01, -7.07252622e-02, -1.11764036e-01,
          -2.06560746e-01, -1.05270311e-01, 1.33426309e-01,
          -1.91587538e-01, -2.38656579e-03, 8.97551775e-02,
          -1.44987911e-01, -1.24748632e-01, -3.03855538e-03,
          3.43960971e-01, 1.80578828e-01, -1.01589397e-01,
          1.02225274e-01, 1.05425730e-01, 2.07035080e-01,
          -1.57120004e-02, 1.53777152e-01, -5.37856780e-02,
          -8.58251378e-03, -1.31564289e-02, -2.23778263e-02,
          -1.08420998e-01, -9.65097174e-02 ]
      - [ 5.42984903e-01, 4.43225168e-02, -3.24724168e-01,
          -9.92395133e-02, -4.89287898e-02, 1.01190723e-01,
          -2.10852638e-01, -1.12684228e-01, -2.39998206e-01,
          5.95986806e-02, 5.36505207e-02, -6.75061196e-02,
          -1.90481380e-01, -4.47821841e-02, 1.74810991e-01,
          -1.82467490e-01, 2.66529880e-02, 1.34870514e-01,
          -2.83312142e-01, -9.97871310e-02, -8.83798823e-02,
          3.42021674e-01, 9.11258310e-02, -7.93138519e-02,
          9.98083055e-02, 5.69235831e-02, 2.16347635e-01, 3.99099942e-03,
          1.05631486e-01, -1.07198253e-01, 4.41675745e-02,
          -4.70218286e-02, -3.57797137e-03, -1.06127538e-01,
          -2.77588293e-02 ]
      - [ 1.54278964e-01, 9.94553566e-02, -2.94725001e-01,
          -3.99542153e-02, 5.20708151e-02, -9.16922167e-02,
          -1.87279552e-01, 5.46587855e-02, -2.46733814e-01,
          -5.63849993e-02, -7.44283125e-02, -1.02966733e-01,
          -2.13616759e-01, -6.57293722e-02, 1.32249609e-01,
          -2.43390590e-01, -6.00559674e-02, 3.35274190e-02,
          -2.87837267e-01, -1.57402441e-01, -6.32844716e-02,
          4.81620252e-01, 1.98479265e-01, -1.10746197e-01,
          1.33115277e-01, 1.98047593e-01, 3.19612294e-01, 4.91393439e-04,
          1.33423820e-01, -1.10233821e-01, 3.14434841e-02,
          -2.78883111e-02, -5.38449474e-02, -1.46743268e-01,
          -8.10036436e-02 ]
      - [ 4.57620919e-01, -3.17257851e-01, -1.37348682e-01,
          -3.66470776e-02, -1.45648524e-01, -5.99409752e-02,
          -3.26028466e-01, -5.64326048e-02, -2.16601431e-01,
          -5.17862067e-02, -3.06848250e-02, -1.97961628e-02,
          -1.83664843e-01, -4.36514840e-02, 2.82593012e-01,
          -1.54757127e-01, -9.13040936e-02, 7.08123296e-02,
          -1.98808327e-01, -1.86339185e-01, -7.75263831e-02,
          3.70646983e-01, 1.32465258e-01, -1.01002090e-01,
          1.14207573e-01, 1.48133934e-01, 1.49724528e-01,
          -1.24833193e-02, 5.93086928e-02, -8.37153271e-02,
          4.34113182e-02, -4.61789779e-02, -1.17975222e-02,
          -1.13996089e-01, -3.29507627e-02 ]
      - [ 4.96673621e-02, -2.07226072e-02, -1.60212263e-01,
          -2.67573416e-01, 6.35367408e-02, -1.95347890e-02,
          -1.79842174e-01, -1.06009744e-01, -2.35444173e-01,
          8.85979906e-02, -1.17171323e-02, -1.01091608e-01,
          -1.92844540e-01, -1.87394276e-01, 3.08390051e-01,
          -2.04692855e-01, -6.42583221e-02, 7.19591007e-02,
          -2.59315133e-01, -2.58768409e-01, 1.48575138e-02,
          4.74520087e-01, 1.67275116e-01, -9.68942344e-02,
          1.04504198e-01, 1.71426892e-01, 2.24930063e-01, 1.99696020e-04,
          1.64568886e-01, -1.03750043e-01, 3.35325934e-02,
          -7.25280046e-02, -5.86209521e-02, -1.21821485e-01,
          -9.59591419e-02 ]
      - [ 6.64126992e-01, 5.90104237e-02, -1.48930058e-01,
          -2.74394393e-01, 3.56581695e-02, -1.29853919e-01,
          -1.16239935e-01, -7.71124288e-02, -9.47052017e-02,
          -6.45083711e-02, -4.03665239e-03, -5.92303947e-02,
          -1.78316027e-01, -9.70010087e-02, 9.76560712e-02,
          -8.52460340e-02, -1.06299154e-01, 8.36383998e-02,
          -1.87876880e-01, -1.37181684e-01, -6.05305806e-02,
          3.81241441e-01, 1.19919300e-01, -3.94733734e-02,
          8.36502537e-02, 1.14260681e-01, 2.14543477e-01,
          -4.18769531e-02, 1.53690606e-01, -8.96500945e-02,
          2.77595650e-02, -6.10653916e-03, -2.13881992e-02,
          -8.24458674e-02, -2.84509026e-02 ]
      - [ 6.80937171e-01, 9.85881388e-02, 5.85170183e-03,
          -1.09622560e-01, 4.47936682e-03, -1.36738390e-01,
          -1.81372300e-01, -1.18624836e-01, -1.14178061e-01,
          1.82292275e-02, 7.71120051e-03, -1.18321925e-01,
          -1.16614267e-01, -9.42400098e-02, 1.36612356e-01,
          -2.13558838e-01, -4.64517400e-02, 5.34360930e-02,
          -1.94957584e-01, -1.39859140e-01, 2.29418613e-02,
          3.52033138e-01, 9.34129581e-02, -8.12252164e-02,
          9.57194865e-02, 1.58128425e-01, 2.20966533e-01, 4.58367541e-03,
          1.40103742e-01, -1.36404410e-01, 7.74574429e-02,
          -3.86057533e-02, -2.24112589e-02, -5.40276095e-02,
          -1.30192302e-02 ]
      - [ 6.84549987e-01, -1.00966088e-01, -1.27327651e-01,
          -8.87055695e-02, 2.16621552e-02, 1.73477843e-01,
          -1.76019847e-01, 3.18850018e-02, -1.17074110e-01,
          7.00085834e-02, -2.65765353e-03, -9.95118842e-02,
          -1.65581539e-01, -9.40349028e-02, 1.63887531e-01,
          -1.34518832e-01, -6.24749772e-02, 1.06944084e-01,
          -1.67570174e-01, -8.36303532e-02, -3.11538614e-02,
          3.39972049e-01, 1.53529003e-01, -1.02969676e-01,
          1.21863529e-01, 1.74345151e-01, 1.85320228e-01,
          -4.47377712e-02, 1.53981835e-01, -9.45400968e-02,
          1.07584121e-02, -5.27972206e-02, -1.90152097e-02,
          -7.85912350e-02, -3.23634595e-04 ]
      - [ 4.66162078e-02, -6.69799233e-03, -2.51898944e-01,
          -1.86060667e-01, 5.40321767e-02, -7.37500861e-02,
          -2.19867125e-01, 2.89155357e-02, -2.15037405e-01,
          1.18159786e-01, 3.35690053e-03, -1.84531093e-01,
          -2.78003842e-01, -1.89857587e-01, 1.01166673e-01,
          -2.61267483e-01, -4.09712307e-02, 9.47759077e-02,
          -2.64205307e-01, -2.13233113e-01, -8.75193626e-02,
          4.85037625e-01, 1.70613900e-01, -1.01590171e-01,
          7.92337582e-02, 1.65427268e-01, 2.42202133e-01, 1.23657926e-04,
          1.65568531e-01, -9.56420079e-02, 5.49788252e-02,
          -1.33840973e-02, 4.18413256e-04, -1.24704756e-01,
          -1.32898735e-02 ]
      - [ 6.77055478e-01, -1.20921992e-01, -9.12061408e-02,
          -1.43884243e-02, 2.48616096e-02, 1.37298539e-01,
          -2.10421920e-01, 3.44642960e-02, -9.79738683e-02,
          6.19918965e-02, -2.23221034e-02, -1.13501459e-01,
          -1.75930128e-01, -6.04558960e-02, 1.80508450e-01,
          -2.04349518e-01, -7.57624134e-02, 7.17780814e-02,
          -1.68317825e-01, -8.50602686e-02, -7.63927177e-02,
          3.37361097e-01, 1.42717808e-01, -1.21951275e-01,
          8.19448307e-02, 1.53402880e-01, 1.77596629e-01,
          -2.58679818e-02, 1.80245146e-01, -7.70266280e-02,
          8.75189435e-03, -5.93961962e-02, -2.54813815e-03,
          -1.08551793e-01, 1.10897217e-02 ]
      - [ 6.82306647e-01, 6.36146218e-02, -7.42898285e-02,
          -1.69439614e-01, 3.97810806e-03, -1.80139214e-01,
          -1.35753974e-01, -1.02916941e-01, -1.21949226e-01,
          -1.65284760e-02, 3.24895722e-03, -9.36187953e-02,
          -1.20464601e-01, -1.44291237e-01, 9.86371487e-02,
          -1.20676532e-01, -6.93399683e-02, 1.00336097e-01,
          -2.20604971e-01, -1.33532435e-01, -2.02201828e-02,
          3.51848155e-01, 1.16821542e-01, -5.68438806e-02,
          1.22247271e-01, 1.67009562e-01, 2.30023250e-01,
          -3.73209417e-02, 1.23696573e-01, -1.05558500e-01,
          4.72261235e-02, -9.79706645e-03, -8.99697747e-03,
          -4.71662395e-02, -2.18799096e-02 ]
      - [ 8.34912136e-02, -3.25654470e-03, -1.48590147e-01,
          -2.40513206e-01, 2.19597667e-02, -2.53739394e-02,
          -1.83107451e-01, -8.54418725e-02, -2.19947755e-01,
          7.49941617e-02, 5.86799765e-03, -3.99998836e-02,
          -1.98948920e-01, -2.06938773e-01, 3.06930691e-01,
          -2.37438768e-01, -8.39417428e-02, 5.54646887e-02,
          -2.63888687e-01, -2.47235849e-01, -3.34884186e-04,
          4.71001983e-01, 1.76698491e-01, -8.08926001e-02,
          1.16359800e-01, 1.69387966e-01, 2.49129638e-01, 1.14442017e-02,
          1.78387523e-01, -8.79567564e-02, 3.21181715e-02,
          -7.66725838e-02, -8.81704837e-02, -1.24500297e-01,
          -8.85939747e-02 ]
      - [ 6.52559578e-01, 3.41355838e-02, -2.85407484e-01,
          -1.93103746e-01, -1.19663193e-04, 1.25843510e-01,
          -6.32625371e-02, -7.48401284e-02, -1.19583622e-01,
          5.94136342e-02, -1.32985529e-03, -3.74671891e-02,
          -1.05969191e-01, -1.12238586e-01, 1.12338819e-01,
          -1.34560153e-01, -5.81611767e-02, 5.30423298e-02,
          -1.55640230e-01, -1.44639552e-01, -6.01063818e-02,
          3.68947327e-01, 8.89895782e-02, -1.55780047e-01,
          1.40341580e-01, 1.79080456e-01, 1.76609963e-01,
          -4.18103784e-02, 1.52056724e-01, -1.14998594e-01,
          4.07963060e-02, -3.63381356e-02, -3.51201631e-02,
          -6.41505495e-02, -4.87743691e-02 ]
      - [ 6.64232194e-01, -9.76797715e-02, -2.03041315e-01,
          -1.34292126e-01, 2.25188304e-02, 1.77191451e-01,
          -1.46972030e-01, 2.69106589e-02, -1.17552079e-01,
          1.85992643e-02, -7.23463111e-03, -1.04265422e-01,
          -1.27861947e-01, -1.25360250e-01, 1.45261884e-01,
          -1.04451917e-01, -4.30115014e-02, 8.97580683e-02,
          -2.04003885e-01, -1.19569696e-01, -2.05278639e-02,
          3.49368453e-01, 1.40521005e-01, -1.00290135e-01,
          1.53210461e-01, 1.79328874e-01, 1.45628661e-01,
          -3.42807919e-02, 1.36815101e-01, -1.23881102e-01,
          2.55120527e-02, -5.01723439e-02, -3.16748582e-02,
          -1.09235182e-01, -1.77012421e-02 ]
      - [ 5.40200174e-01, 1.16096372e-02, -5.89474738e-02,
          -6.53640553e-02, 2.74605416e-02, 9.16582644e-02,
          7.97723979e-03, 8.60309824e-02, -3.25667888e-01,
          4.43022363e-02, 2.01508272e-02, -1.09575257e-01,
          -1.99080735e-01, -5.50305098e-02, 7.57386684e-02,
          -2.05791980e-01, -7.55228102e-02, 5.20219468e-02,
          -2.26266816e-01, -2.18295783e-01, -1.17284186e-01,
          4.42424387e-01, 7.93854967e-02, -2.42826026e-02,
          7.09192753e-02, 1.29159495e-01, 2.18385592e-01, 2.16538832e-02,
          1.56945318e-01, -2.09038422e-01, -3.67782861e-02,
          2.04542652e-02, -9.17927623e-02, 1.99794322e-02,
          -7.34710554e-03 ]
      - [ 6.58625305e-01, 9.73316506e-02, -1.73075590e-02,
          1.56606305e-02, 4.19846475e-02, 7.03694895e-02,
          -2.45418951e-01, -1.17474712e-01, -1.51708320e-01,
          7.61974324e-03, -3.47301401e-02, -8.63922536e-02,
          -2.06597045e-01, -8.09429586e-02, 1.80914298e-01,
          -2.56657422e-01, -8.22124109e-02, 6.81754276e-02,
          -1.61541387e-01, -1.17865868e-01, -4.09410261e-02,
          3.02138299e-01, 7.67009482e-02, -8.28864574e-02,
          2.84735411e-02, 1.45997643e-01, 2.24608138e-01, 5.68406284e-02,
          1.79285020e-01, -9.82462093e-02, -9.00479220e-03,
          -3.88596132e-02, 3.28930616e-02, -1.16776049e-01,
          -6.96136877e-02 ]
      - [ 1.20123111e-01, 8.97289366e-02, -3.16378325e-01,
          -5.60258813e-02, -1.64297242e-02, -1.20713480e-01,
          -1.84088334e-01, -8.84961057e-03, -2.39105374e-01,
          5.83612323e-02, 1.09907938e-03, 2.02982891e-02,
          -2.11804792e-01, -1.75837889e-01, 1.54313356e-01,
          -2.99437821e-01, -6.26171902e-02, 4.84227091e-02,
          -2.21250340e-01, -1.69522166e-01, -2.64388230e-02,
          4.89904374e-01, 1.67965516e-01, -1.23651221e-01,
          1.42152905e-01, 2.11412251e-01, 2.73356378e-01, 3.20399813e-02,
          2.02711865e-01, -8.89119059e-02, 3.76121476e-02,
          1.37680732e-02, 3.29209887e-03, -1.14972137e-01,
          -5.08279018e-02 ]
      - [ 1.06852584e-01, 1.14726447e-01, -3.39744151e-01,
          -4.19120193e-02, -2.16230210e-02, -1.25073582e-01,
          -1.67021036e-01, -2.86942348e-03, -2.52296329e-01,
          4.38708998e-02, -7.16972025e-03, 1.86108705e-02,
          -2.01923847e-01, -1.50229901e-01, 1.48242235e-01,
          -2.89296776e-01, -5.90579398e-02, 3.85805927e-02,
          -2.11075917e-01, -1.56936839e-01, -3.15568298e-02,
          4.92333978e-01, 1.48270980e-01, -1.19253621e-01,
          1.50379449e-01, 2.26057053e-01, 2.91214824e-01, 2.82861926e-02,
          1.95894152e-01, -7.84829110e-02, 4.84324172e-02,
          1.98373795e-02, 2.75055924e-03, -1.20097540e-01,
          -6.67604953e-02 ]
      - [ 6.19015992e-01, -4.13770340e-02, -3.45283747e-01,
          -2.12897018e-01, -3.72893848e-02, 2.61064209e-02,
          -1.00734212e-01, -4.89157289e-02, -1.32443205e-01,
          1.33924633e-02, 1.45693058e-02, -9.08320025e-02,
          -7.41232708e-02, -1.22044437e-01, 1.42115980e-01,
          -1.67235166e-01, -4.34210077e-02, -9.56318341e-03,
          -1.02872118e-01, -2.00287789e-01, -5.03962412e-02,
          3.62284273e-01, 1.07991971e-01, -1.02345213e-01,
          9.55991447e-02, 1.74863473e-01, 1.98379695e-01,
          -1.05803451e-02, 1.43637151e-01, -1.25809774e-01,
          1.04266973e-02, 1.43977127e-03, -4.01392439e-03,
          -8.80354494e-02, -9.53472704e-02 ]
      - [ 6.35622323e-01, 1.07510448e-01, -1.35775536e-01,
          -3.48056436e-01, 1.39938109e-02, -8.52955952e-02,
          -1.47052214e-01, -3.48391756e-02, -1.23319313e-01,
          -9.42792818e-02, -2.05489174e-02, -5.30394390e-02,
          -1.99218690e-01, -9.09179524e-02, 1.11533172e-01,
          -8.70221108e-02, -8.75853375e-02, 7.29530454e-02,
          -1.73891887e-01, -1.31607309e-01, -7.13510662e-02,
          3.66924554e-01, 1.08816996e-01, -5.97978011e-02,
          6.93847910e-02, 1.11706667e-01, 2.11711869e-01,
          -8.48297216e-03, 1.64124116e-01, -7.22940266e-02,
          1.92015078e-02, 8.59002396e-03, -1.92331113e-02,
          -8.20623338e-02, -4.06183936e-02 ]
      - [ 1.01440653e-01, -1.31985128e-01, -1.22048650e-02,
          -3.52441490e-01, 2.69123297e-02, 7.14337379e-02,
          -1.68175071e-01, -2.00775284e-02, -2.36109823e-01,
          4.89607230e-02, 1.62908986e-01, -4.25362960e-02,
          -1.89407900e-01, -1.54609874e-01, 2.23494709e-01,
          -2.80174553e-01, -5.56734875e-02, 4.43297476e-02,
          -3.04033041e-01, -1.64282128e-01, -5.18046133e-02,
          3.99181962e-01, 1.67250350e-01, -8.44549611e-02,
          1.44818529e-01, 2.00592518e-01, 2.95135647e-01,
          -8.06531217e-03, 1.50300905e-01, -1.19327761e-01,
          7.22649274e-03, -3.67728472e-02, -8.28278437e-02,
          -1.34638175e-01, -7.39296377e-02 ]
      - [ 6.62995696e-01, 2.69296002e-02, -2.71713614e-01,
          -1.64520726e-01, 4.77239629e-03, 1.43064275e-01,
          -8.87630060e-02, -7.55144581e-02, -1.29176766e-01,
          5.99230900e-02, -4.92539909e-03, -2.10175943e-02,
          -1.23270586e-01, -1.19483113e-01, 1.27188951e-01,
          -1.22761764e-01, -4.28404473e-02, 6.01093844e-02,
          -1.57043502e-01, -1.14746124e-01, -7.86946416e-02,
          3.62108529e-01, 9.66590866e-02, -1.33236319e-01,
          1.31302893e-01, 1.83177248e-01, 1.83789670e-01,
          -4.71054316e-02, 1.58349201e-01, -1.14167616e-01,
          5.85504360e-02, -4.08670194e-02, -2.39225980e-02,
          -5.50180413e-02, -4.46719453e-02 ]
      - [ 6.52417362e-01, -4.02561016e-02, -1.40284136e-01,
          -3.33013535e-01, -1.74704976e-02, -1.13486096e-01,
          -9.04991403e-02, 2.06212699e-02, -1.04767077e-01,
          -4.36198479e-03, 4.30239663e-02, -5.44835627e-02,
          -2.05307946e-01, -7.82061145e-02, 1.37163818e-01,
          -1.08496986e-01, -3.55567560e-02, 3.11043095e-02,
          -2.21795693e-01, -1.79862276e-01, -8.10077190e-02,
          2.84573048e-01, 1.27203777e-01, -4.57211994e-02,
          9.62578207e-02, 1.67008027e-01, 2.40977645e-01,
          -7.32286051e-02, 1.34290427e-01, -7.25334808e-02,
          1.74941421e-02, 1.80006097e-03, 1.47787258e-02,
          -1.03392884e-01, -3.15032937e-02 ]
      - [ 1.09464131e-01, -1.24919169e-01, -1.77697483e-02,
          -3.44289303e-01, 2.87818965e-02, 6.91974387e-02,
          -1.74024612e-01, -2.24731341e-02, -2.30711505e-01,
          5.08665591e-02, 1.64082274e-01, -3.91556881e-02,
          -1.89546764e-01, -1.61133036e-01, 2.27235377e-01,
          -2.81486571e-01, -6.19486980e-02, 4.73205894e-02,
          -3.03081661e-01, -1.66948438e-01, -5.44294156e-02,
          4.04967338e-01, 1.63092732e-01, -8.02541599e-02,
          1.42568097e-01, 1.95476845e-01, 2.93739110e-01,
          -5.80518460e-03, 1.54803112e-01, -1.21867336e-01,
          7.89811555e-03, -3.85320373e-02, -7.84875676e-02,
          -1.32424653e-01, -7.34913871e-02 ]
      - [ 6.22377157e-01, -1.61081046e-01, -8.29290971e-02,
          -2.13938937e-01, -6.35569617e-02, -1.71609774e-01,
          -8.57721418e-02, 5.97574227e-02, -1.69884250e-01,
          3.77713703e-02, 2.38052774e-02, -1.09700441e-01,
          -7.93159977e-02, -7.28909895e-02, 1.21902764e-01,
          -1.50460526e-01, -4.41622129e-03, 1.26982778e-01,
          -2.00785503e-01, -1.78757176e-01, 1.84947718e-03,
          3.56328785e-01, 1.44987926e-01, -9.79638770e-02,
          1.72943994e-01, 1.55639723e-01, 2.31725425e-01,
          -2.45241113e-02, 1.32423639e-01, -1.15608253e-01,
          3.49197090e-02, -4.42409515e-02, -1.62811782e-02,
          -9.32616740e-02, -1.29194474e-02 ]
      - [ 6.33309841e-01, -1.22586064e-01, 5.07109761e-02,
          -7.99021944e-02, -3.55514474e-02, -1.32713124e-01,
          -2.01887637e-01, 4.82485816e-02, -1.42747119e-01,
          4.61498499e-02, 7.13400962e-03, -1.72870070e-01,
          -1.06383547e-01, -4.92884256e-02, 1.86398044e-01,
          -2.65385836e-01, 1.59938484e-02, 8.54129940e-02,
          -1.73077017e-01, -1.71452746e-01, 1.48773682e-03,
          3.34575951e-01, 1.06429935e-01, -1.23396643e-01,
          1.05986722e-01, 1.26779571e-01, 2.10959956e-01, 1.99064035e-02,
          1.80981442e-01, -1.31225601e-01, 1.21607911e-02,
          -8.32713395e-03, -3.17895263e-02, -1.06031463e-01,
          -3.94740105e-02 ]
      - [ 8.44122767e-02, 2.54804958e-02, -1.92063540e-01,
          -9.49312374e-02, -8.65756869e-02, -7.55840242e-02,
          -2.28168890e-01, -1.27653196e-01, -1.64617673e-01,
          6.95349276e-02, -8.29162672e-02, -2.75785681e-02,
          -1.79408357e-01, -1.42866746e-01, 2.50489414e-01,
          -2.65377879e-01, -8.04766547e-03, 7.55668133e-02,
          -3.29290897e-01, -2.23955363e-01, -7.62824565e-02,
          5.05325615e-01, 1.86001018e-01, -1.45909175e-01,
          9.43487063e-02, 1.28015280e-01, 2.26021528e-01,
          -3.00084967e-02, 1.86290219e-01, -1.41809419e-01,
          -4.80397642e-02, -3.75758447e-02, -4.50224839e-02,
          -1.39732674e-01, -2.52535548e-02 ]
      - [ 4.44451869e-01, 2.33036786e-01, -5.70320487e-02,
          -3.46701890e-01, -1.36308700e-01, 6.23946264e-02,
          -2.79633671e-01, 4.66437824e-02, -2.42044806e-01,
          -2.72927340e-02, -4.47997190e-02, -1.53387547e-01,
          -1.01448536e-01, -1.32220805e-01, 9.05363187e-02,
          -2.27947921e-01, -2.56309230e-02, 1.14800259e-01,
          -2.09444657e-01, -1.48209691e-01, -1.78199671e-02,
          3.51369321e-01, 1.23988867e-01, -5.86484112e-02,
          1.55521899e-01, 1.61734447e-01, 2.09003597e-01,
          -1.80851649e-02, 1.04921997e-01, -1.00315265e-01,
          1.63198821e-02, 1.42723033e-02, -4.51306924e-02,
          -8.84968564e-02, -3.21891978e-02 ]
      - [ 1.41248673e-01, -1.46724418e-01, -1.77159086e-02,
          -3.34646970e-01, -1.29070564e-03, 9.87666845e-02,
          -2.38763079e-01, -1.41264483e-01, -1.51506528e-01,
          -9.37862545e-02, -2.50500180e-02, -1.66645139e-01,
          -1.41727433e-01, -5.62043674e-02, 1.32550225e-01,
          -2.51862735e-01, -1.07574381e-01, -6.28571375e-04,
          -2.19513416e-01, -1.94709137e-01, -3.25573236e-02,
          5.22692740e-01, 1.42267019e-01, -8.37238729e-02,
          1.44843936e-01, 2.20524460e-01, 2.43471310e-01,
          -9.23261337e-04, 1.84953555e-01, -1.32097006e-01,
          1.35121203e-03, -3.31404768e-02, -3.53660434e-02,
          -8.97986516e-02, -7.03590438e-02 ]
      - [ 6.33994937e-01, -1.20941788e-01, 6.64173886e-02,
          -1.12716950e-01, -4.96934615e-02, -1.82192817e-01,
          -1.84406444e-01, 6.61285892e-02, -1.63295835e-01,
          4.08017226e-02, 1.53860301e-02, -1.67222425e-01,
          -8.97096470e-02, -7.94589967e-02, 1.73998281e-01,
          -2.30753392e-01, 2.46722642e-02, 8.34094808e-02,
          -1.84880957e-01, -1.56763613e-01, -1.92287285e-03,
          3.34553152e-01, 1.02360800e-01, -1.28453180e-01,
          1.14956386e-01, 1.30595118e-01, 2.26775348e-01,
          -1.14406634e-03, 1.57466620e-01, -1.20848015e-01,
          3.32840495e-02, -2.29235087e-02, -4.53869253e-02,
          -8.73020366e-02, -1.44161293e-02 ]
      - [ 6.13778174e-01, -1.53279439e-01, -1.27258614e-01,
          -2.68745750e-01, -5.53045683e-02, -1.32929966e-01,
          -7.05974251e-02, 5.87235801e-02, -1.42707884e-01,
          4.31075394e-02, 2.66915821e-02, -6.88194856e-02,
          -1.20472312e-01, -4.96748723e-02, 1.34192780e-01,
          -1.34078041e-01, -2.11832449e-02, 1.43316120e-01,
          -2.06507012e-01, -2.02337459e-01, -1.23208547e-02,
          3.56867939e-01, 1.44658267e-01, -6.22283667e-02,
          1.83734268e-01, 1.39702410e-01, 2.28180125e-01,
          -3.52209210e-02, 1.29853591e-01, -9.62339938e-02,
          2.90962234e-02, -3.77324335e-02, 1.05005978e-02,
          -8.99069458e-02, -3.89342345e-02 ]
      - [ 4.62696403e-01, 6.33229166e-02, -1.40465006e-01,
          -4.79232639e-01, -1.22395299e-01, 4.97032627e-02,
          -1.93912745e-01, 9.89726558e-02, -2.04209268e-01,
          -3.02526150e-02, -3.46328989e-02, -5.36446720e-02,
          -1.26748636e-01, -5.71341068e-02, 1.66257739e-01,
          -1.80016279e-01, -5.55169135e-02, 9.27612633e-02,
          -2.19473124e-01, -1.60013393e-01, -1.57483779e-02,
          3.05823445e-01, 1.40726134e-01, -1.17830470e-01,
          1.24872960e-01, 1.15272909e-01, 2.41975293e-01,
          -1.99953374e-02, 1.27861440e-01, -8.08687359e-02,
          3.03151459e-02, 6.93520904e-02, 1.40398582e-02,
          -1.03202239e-01, -3.69744077e-02 ]
      - [ 6.08922064e-01, 1.51247680e-01, -1.78631201e-01,
          -1.35043010e-01, -5.14113642e-02, 1.62051022e-01,
          -7.28896409e-02, -1.38015077e-01, -2.04405218e-01,
          7.44473115e-02, 1.09128235e-03, -6.35660887e-02,
          -1.98654681e-01, -3.16483453e-02, 1.25689074e-01,
          -1.52154610e-01, -5.41404672e-02, 1.59540415e-01,
          -1.73277810e-01, -1.42682552e-01, -8.08217302e-02,
          3.37028235e-01, 1.61143556e-01, -1.15576491e-01,
          1.27030015e-01, 1.32126793e-01, 2.47172594e-01,
          -1.32052703e-02, 1.43767729e-01, -9.98920798e-02,
          1.44186178e-02, -5.11385463e-02, -2.68866625e-02,
          -5.89278713e-02, -3.74943130e-02 ]
      - [ 5.84886491e-01, 9.98923257e-02, -9.26849321e-02,
          -3.53069574e-01, -9.70919281e-02, -6.08179308e-02,
          -1.46705076e-01, -2.33379868e-03, -2.16840178e-01,
          -7.09215403e-02, -4.33370098e-02, -8.15202147e-02,
          -1.90300852e-01, -9.05339271e-02, 1.52711377e-01,
          -9.36828405e-02, 1.62115954e-02, 1.46253943e-01,
          -1.65794700e-01, -1.31745026e-01, -1.40462797e-02,
          3.78725469e-01, 7.74539933e-02, -9.30149630e-02,
          1.09393835e-01, 1.04280859e-01, 2.25367308e-01, 2.10519265e-02,
          1.67413265e-01, -7.51609877e-02, 2.76209582e-02,
          -9.17026959e-03, -7.85155687e-03, -8.65467861e-02,
          -4.49071974e-02 ]
      - [ 3.81390989e-01, -1.21419199e-01, -1.59966707e-01,
          -1.19902171e-01, -1.48662314e-01, -1.72990397e-01,
          -8.20634142e-02, -6.20353632e-02, -3.66881907e-01,
          -4.05294150e-02, 8.07882398e-02, -9.55796018e-02,
          -1.15875423e-01, -5.88471591e-02, 1.85120925e-01,
          -2.35526070e-01, -8.11119825e-02, 1.07022144e-01,
          -3.77809048e-01, -8.77377540e-02, -4.15182300e-02,
          4.27817374e-01, 9.92713124e-02, -4.98456098e-02,
          8.92841145e-02, 1.39422536e-01, 1.29629984e-01,
          -7.26984069e-02, 2.08426967e-01, -5.54607809e-02,
          -6.31611571e-02, -1.33793792e-02, 2.49912404e-02,
          -1.04966633e-01, -3.59817371e-02 ]
      - [ 6.46025777e-01, 9.33354273e-02, 4.48489375e-02,
          -7.64545798e-02, -4.00650315e-02, -1.29006833e-01,
          -1.49977565e-01, -6.90148026e-02, -1.38986975e-01,
          8.52068048e-03, -8.25382490e-03, -1.85322076e-01,
          -1.28379360e-01, -5.39719239e-02, 1.42627597e-01,
          -2.73605198e-01, -3.19534391e-02, 8.83486271e-02,
          -1.91898331e-01, -1.56807750e-01, -1.96419880e-02,
          3.66384625e-01, 8.53822157e-02, -9.07450244e-02,
          1.13449290e-01, 9.62111577e-02, 2.17370674e-01, 9.66334902e-03,
          1.59908354e-01, -1.35943547e-01, 5.21978512e-02,
          -4.33462262e-02, -4.63238470e-02, -9.41322297e-02,
          -5.15591837e-02 ]
      - [ 4.48783785e-01, -2.45659024e-01, -2.74296135e-01,
          -1.02100968e-01, -1.57389641e-01, -5.68067990e-02,
          -2.56656408e-01, -1.28952429e-01, -2.74106860e-01,
          -4.75027449e-02, 1.43538658e-02, -1.01127081e-01,
          -2.18323454e-01, -5.94486035e-02, 2.11589798e-01,
          -1.60134152e-01, -5.30379526e-02, 1.41538084e-01,
          -1.53059974e-01, -1.08907275e-01, -4.14042547e-02,
          3.44237626e-01, 1.47277132e-01, -7.49646947e-02,
          1.45426586e-01, 1.95407093e-01, 1.62469700e-01,
          -3.03598940e-02, 1.13311492e-01, -8.91792551e-02,
          -8.06726050e-04, 8.63022543e-03, -6.05448335e-02,
          -1.23768002e-01, -2.20155381e-02 ]
      - [ 6.27362728e-01, 9.56684574e-02, -1.35485902e-02,
          -2.37991318e-01, -7.98070431e-02, -1.27556056e-01,
          -1.39166459e-01, -5.78293055e-02, -1.81445986e-01,
          -5.28542995e-02, -1.71714965e-02, -1.13349982e-01,
          -1.94361046e-01, -6.24109879e-02, 1.30310714e-01,
          -1.48298785e-01, 5.05115651e-02, 1.05334491e-01,
          -1.67053357e-01, -1.40603855e-01, -1.09236594e-02,
          4.01768565e-01, 1.13419510e-01, -4.27916683e-02,
          1.07969671e-01, 7.79047161e-02, 1.98981076e-01,
          -1.76801179e-02, 1.85058221e-01, -1.09117575e-01,
          3.93628404e-02, -7.54789785e-02, -1.44337248e-02,
          -1.18373036e-01, -5.26919477e-02 ]
      - [ 6.23732984e-01, 1.25195146e-01, -6.66983426e-02,
          -1.59099940e-02, -3.90930399e-02, 1.41608879e-01,
          -1.65159687e-01, -1.37415260e-01, -1.86184019e-01,
          6.20042980e-02, -2.75065061e-02, -1.10308833e-01,
          -2.33913183e-01, -1.60047412e-02, 1.69820815e-01,
          -2.33714476e-01, -1.89640541e-02, 1.15152694e-01,
          -1.54502720e-01, -1.27276272e-01, -6.48189113e-02,
          3.34590077e-01, 1.07885525e-01, -8.53989944e-02,
          8.90963972e-02, 1.10800885e-01, 2.44004622e-01, 7.75125343e-04,
          1.70360655e-01, -1.15172453e-01, -3.79034318e-04,
          -4.43228893e-02, -6.95092510e-03, -1.15531862e-01,
          -8.24407190e-02 ]
      - [ 5.18846929e-01, -1.04876719e-01, 1.14362933e-01,
          -1.08443284e-02, 2.11915046e-01, -1.05197035e-01,
          -2.02272132e-01, -1.11125901e-01, -2.86741406e-01,
          -1.09227665e-01, 3.08456719e-02, 5.81320822e-02,
          -1.81763440e-01, -8.65750611e-02, 5.18299825e-02,
          -2.52203673e-01, -6.97516352e-02, 2.72219684e-02,
          -1.46840140e-01, -9.89425853e-02, -9.80627015e-02,
          3.82896990e-01, 1.92260295e-01, -1.89342797e-01,
          1.66387245e-01, 1.43102884e-01, 1.41680330e-01,
          -7.94052258e-02, 8.38094950e-02, -1.57398149e-01,
          3.36898118e-02, -2.20687129e-03, -7.54847750e-02,
          -9.93605852e-02, -5.48381694e-02 ]
      - [ 1.36171281e-01, -1.12151809e-01, -2.65612248e-02,
          -2.53640026e-01, -1.54137453e-02, 1.17809728e-01,
          -2.72527456e-01, -1.51752159e-01, -1.54961765e-01,
          -8.73246193e-02, -4.05155495e-02, -9.80167612e-02,
          -1.20993413e-01, -5.80899119e-02, 1.88908398e-01,
          -2.30229914e-01, -6.76613152e-02, 8.20718519e-03,
          -2.22423568e-01, -2.10757509e-01, -4.31230180e-02,
          5.53668559e-01, 1.27551839e-01, -5.48335463e-02,
          1.55031219e-01, 2.32166559e-01, 2.78503984e-01,
          -4.07998338e-02, 1.52822718e-01, -1.42953128e-01,
          2.84193759e-03, 7.93760177e-04, -1.19653484e-02,
          -1.16975084e-01, -4.26473990e-02 ]
      - [ 7.88160637e-02, -6.09754287e-02, -5.12461253e-02,
          -2.35031873e-01, -6.12157844e-02, 3.81179415e-02,
          -2.53324270e-01, 2.54787765e-02, -1.23293124e-01,
          8.78062174e-02, 1.33436143e-01, -1.38334960e-01,
          -2.35628262e-01, -1.24565892e-01, 1.55481979e-01,
          -2.34698117e-01, -2.32211389e-02, 9.88726988e-02,
          -2.57981986e-01, -2.25312963e-01, -5.38794324e-02,
          5.70341885e-01, 1.03668518e-01, -9.66073871e-02,
          1.14941932e-01, 1.43897623e-01, 2.69079000e-01, 6.96259842e-04,
          2.06970453e-01, -1.21100307e-01, 2.31137611e-02,
          1.02535123e-02, -8.58190842e-03, -7.91081563e-02,
          -7.30005428e-02 ]
      - [ 6.18280470e-01, -7.74724483e-02, -1.80437624e-01,
          -1.78451732e-01, 1.56107366e-01, 1.22957900e-01,
          -7.96815231e-02, -1.02067083e-01, -3.00565343e-02,
          -7.81829357e-02, -5.01289219e-02, -6.68111518e-02,
          -1.34611413e-01, -1.59521192e-01, 7.74529874e-02,
          -2.38900632e-01, -6.74241558e-02, 4.78632860e-02,
          -2.72146076e-01, -1.77549049e-01, 1.58875510e-02,
          3.86434317e-01, 8.75787959e-02, -2.77099945e-02,
          8.85542855e-02, 7.79883116e-02, 1.87382236e-01, 9.94782709e-03,
          1.69835448e-01, -6.42335713e-02, 8.15141667e-03,
          -2.90378905e-03, -5.04133999e-02, -1.20832466e-01,
          2.58728005e-02 ]
      - [ 6.25093937e-01, 1.45619169e-01, -3.10922805e-02,
          6.52670935e-02, 1.04930222e-01, -5.08806109e-02,
          -2.52774507e-01, -7.41066411e-02, -1.59610987e-01,
          -1.15697131e-01, 9.90727767e-02, -9.43773314e-02,
          -2.37913892e-01, -1.95487544e-01, 1.43375680e-01,
          -1.64893046e-01, -9.24206246e-03, 4.72533442e-02,
          -2.11764038e-01, -1.23378441e-01, 7.97689240e-03,
          3.40633929e-01, 1.21912770e-01, -9.42070261e-02,
          9.97093990e-02, 1.30929708e-01, 1.36182368e-01, 1.04007486e-03,
          1.31133169e-01, -1.30240947e-01, 6.06473647e-02,
          -1.74105610e-03, 2.05396358e-02, -1.07644476e-01,
          -4.46531549e-02 ]
      - [ 6.07688904e-01, -9.11534056e-02, -2.68667545e-02,
          -2.58598536e-01, 8.81192982e-02, 1.86494160e-02,
          -1.83071882e-01, 7.52293319e-02, -8.60820711e-02,
          -3.52252722e-02, -4.58023697e-02, 8.76695849e-03,
          -7.44735152e-02, -1.82139739e-01, 1.93171740e-01,
          -1.90671489e-01, -2.41145529e-02, 1.36511445e-01,
          -1.67637736e-01, -8.16887170e-02, -3.96045260e-02,
          4.65823025e-01, 1.25499621e-01, -6.17597252e-02,
          5.11966832e-02, 1.60843283e-01, 1.70902252e-01, 2.02448461e-02,
          1.37836576e-01, -4.77792881e-02, 3.72830369e-02,
          -4.22737338e-02, -4.91109267e-02, -4.71047945e-02,
          -7.06385896e-02 ]
      - [ 1.20422900e-01, -4.85161468e-02, -5.18340245e-02,
          -2.39076078e-01, -6.48185536e-02, 3.37002352e-02,
          -1.50842130e-01, -1.57895729e-01, -2.64085531e-01,
          4.95655555e-03, -5.49044050e-02, -1.33258209e-01,
          -1.32295638e-01, -1.12609729e-01, 2.95286328e-01,
          -1.61442861e-01, -5.01260385e-02, 8.81021395e-02,
          -2.92138189e-01, -2.27418721e-01, 3.62652063e-04,
          4.96364653e-01, 1.16318159e-01, -4.00499180e-02,
          1.27866939e-01, 2.21120313e-01, 2.85989881e-01, 1.66783519e-02,
          2.09367841e-01, -1.22780420e-01, -7.16221984e-03,
          -4.60688435e-02, -3.25924009e-02, -1.16614006e-01,
          -6.62740096e-02 ]
      - [ 5.99012971e-01, 4.19784850e-03, -3.42854291e-01,
          -9.79649946e-02, 3.10007650e-02, -3.39558441e-03,
          -1.48334339e-01, -1.00982867e-01, -8.02737102e-02,
          -4.10523973e-02, 1.18133850e-01, -6.08485565e-02,
          -1.66931182e-01, -1.23372473e-01, 8.80727842e-02,
          -1.68034852e-01, -1.35701885e-02, 9.81546566e-02,
          -3.14257294e-01, -1.33128673e-01, 1.96282156e-02,
          3.62558395e-01, 1.04796551e-01, -8.84176046e-02,
          1.05339177e-01, 1.48163289e-01, 1.74534544e-01,
          -2.80871801e-02, 1.05984047e-01, -9.39457640e-02,
          4.40985933e-02, -4.73731346e-02, -1.17347818e-02,
          -8.57674256e-02, -5.48233427e-02 ]
      - [ 5.28554440e-01, -9.59220007e-02, -3.87878984e-01,
          -1.34420753e-01, 1.02280444e-02, -9.18140188e-02,
          -1.57476991e-01, -4.37110923e-02, -9.24813226e-02,
          -8.54846463e-02, 1.30265921e-01, -1.29766792e-01,
          -1.46168470e-01, -9.99317020e-02, 1.53988957e-01,
          -1.90583318e-01, -9.78828892e-02, 2.73842439e-02,
          -2.19970286e-01, -1.78893432e-01, 5.91924079e-02,
          3.87579054e-01, 7.96578825e-02, -6.40440658e-02,
          5.63753694e-02, 1.40917227e-01, 2.08626434e-01,
          -2.28627156e-02, 1.39519945e-01, -1.07233949e-01,
          -3.69194988e-03, 2.15894673e-02, -1.97125003e-02,
          -8.23061094e-02, -7.76574463e-02 ]
      - [ 5.73036075e-01, -1.17727049e-01, -2.28329785e-02,
          4.00044722e-03, -2.48902831e-02, -3.65711786e-02,
          -1.46573812e-01, 6.65534288e-02, -2.02517301e-01,
          -4.92069498e-02, 7.28630871e-02, -4.81432974e-02,
          -6.35285378e-02, -4.28477935e-02, 1.56504750e-01,
          -1.63387865e-01, -6.17797635e-02, 2.07656864e-02,
          -2.46326342e-01, -2.48264372e-01, -1.27422437e-01,
          3.98493797e-01, 2.06894785e-01, -9.23628509e-02,
          4.98794131e-02, 2.07507223e-01, 2.72002816e-01, 2.82784551e-02,
          1.63546517e-01, -4.26309220e-02, -1.26319099e-02,
          8.50644708e-03, -8.77300859e-04, -1.15780331e-01,
          -7.59932250e-02 ]
      - [ 1.24282964e-01, 1.59855559e-02, -1.99912220e-01,
          -1.07972093e-01, -8.53101611e-02, -6.33246005e-02,
          -2.11202726e-01, 8.88675898e-02, -2.24755049e-01,
          5.42467088e-02, 1.23623870e-02, -2.18249440e-01,
          -2.75858909e-01, -1.10074051e-01, 6.17578700e-02,
          -2.10694015e-01, -1.87952518e-02, 1.15379840e-01,
          -2.83557445e-01, -1.94548458e-01, -1.07626736e-01,
          4.77437288e-01, 1.94552287e-01, -1.17420971e-01,
          1.19013630e-01, 2.31811479e-01, 2.26211220e-01, 4.57697548e-02,
          2.32768834e-01, -1.23429641e-01, -1.09195895e-02,
          1.16009526e-02, -3.61401439e-02, -1.26400545e-01,
          -3.40647879e-03 ]
      - [ 1.39124811e-01, 1.21129043e-02, -1.96877629e-01,
          -1.05349839e-01, -8.66912454e-02, -5.31295054e-02,
          -2.20004231e-01, 8.81828219e-02, -2.27970809e-01,
          7.28125200e-02, 4.48625349e-02, -1.88343897e-01,
          -2.69860417e-01, -1.07407503e-01, 4.97897044e-02,
          -2.26199582e-01, -1.44621441e-02, 1.16266109e-01,
          -2.89814204e-01, -1.89348474e-01, -1.12080291e-01,
          4.72776234e-01, 1.80703312e-01, -1.22336462e-01,
          1.23340085e-01, 2.36807689e-01, 2.25780755e-01, 4.77783047e-02,
          2.41327643e-01, -1.25120655e-01, -5.29501215e-03,
          1.41045535e-02, -2.43108012e-02, -1.19480081e-01,
          -2.34086700e-02 ]
      - [ 4.81332660e-01, -1.23453006e-01, -3.76402736e-01,
          -9.80967581e-02, -7.07785273e-03, -1.02242999e-01,
          -1.49736151e-01, -3.37079763e-02, -1.41216099e-01,
          -7.60681331e-02, 1.34120226e-01, -1.56516254e-01,
          -1.87009573e-01, -1.27304897e-01, 2.20963344e-01,
          -2.61985749e-01, -7.59935752e-02, -6.19714428e-03,
          -1.76462889e-01, -1.53896645e-01, 3.13385800e-02,
          3.81546617e-01, 1.28866062e-01, -3.05388551e-02,
          4.65402268e-02, 1.24048300e-01, 1.91270813e-01,
          -4.65591364e-02, 1.84342727e-01, -8.39465186e-02,
          1.69836804e-02, 4.93359799e-03, -6.52292103e-04,
          -8.43237489e-02, -3.69599164e-02 ]
      - [ 4.96032476e-01, -1.42937779e-01, -3.69266093e-01,
          -1.09212786e-01, -5.28732501e-03, -1.41145334e-01,
          -1.69471323e-01, -5.21008484e-02, -1.19649254e-01,
          -9.52015072e-02, 1.21640243e-01, -1.30028784e-01,
          -1.88884765e-01, -9.16419402e-02, 1.94405451e-01,
          -2.01607704e-01, -1.21889599e-01, 4.44910303e-02,
          -1.79400355e-01, -1.68660924e-01, 5.87957725e-02,
          3.96686882e-01, 1.11362070e-01, -6.12808354e-02,
          4.91753034e-02, 1.67734653e-01, 1.83009163e-01,
          -3.26895863e-02, 1.32825762e-01, -9.86827612e-02,
          -5.24506718e-03, 1.92481168e-02, -2.83494107e-02,
          -7.42394403e-02, -5.10161519e-02 ]
      - [ 9.98332202e-02, -4.93378006e-02, -5.81037402e-02,
          -2.40127489e-01, -6.27771467e-02, 3.25297825e-02,
          -1.48277700e-01, -1.36340886e-01, -2.67096490e-01,
          1.03246029e-02, -5.16404025e-02, -1.73276797e-01,
          -1.54926345e-01, -1.20791622e-01, 2.83521235e-01,
          -1.46121085e-01, -4.85529937e-02, 9.43533033e-02,
          -2.97895163e-01, -2.18763813e-01, 7.97392568e-04,
          4.91170734e-01, 1.30716726e-01, -5.99277765e-02,
          1.25732556e-01, 2.12444574e-01, 2.82894373e-01, 1.55971171e-02,
          2.18551591e-01, -1.18794605e-01, -1.09392405e-02,
          -5.82348406e-02, -5.05377948e-02, -1.01631470e-01,
          -8.51409957e-02 ]
      - [ 1.21291310e-01, 1.83301624e-02, -2.03593120e-01,
          -1.06809981e-01, -8.38643759e-02, -6.68897331e-02,
          -2.10641220e-01, 8.72107223e-02, -2.25213096e-01,
          5.17740957e-02, 3.25729977e-03, -2.21245915e-01,
          -2.76390195e-01, -1.09459080e-01, 6.49578497e-02,
          -2.08773211e-01, -1.73382405e-02, 1.15367815e-01,
          -2.82653064e-01, -1.94946334e-01, -1.03425011e-01,
          4.76205349e-01, 1.96374372e-01, -1.14339255e-01,
          1.19159393e-01, 2.32002690e-01, 2.29494005e-01, 4.33865152e-02,
          2.31914237e-01, -1.21785119e-01, -1.33258738e-02,
          1.08043635e-02, -3.78607586e-02, -1.28593922e-01,
          -2.18015211e-03 ]
      - [ 9.06173885e-02, 2.19279192e-02, -2.80078560e-01,
          -5.09144254e-02, -1.07385337e-01, -7.36613348e-02,
          -1.68121070e-01, -5.46313114e-02, -2.31141716e-01,
          1.14364363e-01, -5.48331402e-02, -4.00139876e-02,
          -2.10153446e-01, -1.45416811e-01, 2.46532381e-01,
          -2.25020960e-01, -4.31057625e-02, 8.98811594e-02,
          -2.71965235e-01, -2.25676894e-01, -3.77769209e-02,
          4.90845054e-01, 2.09653288e-01, -1.50340810e-01,
          1.22552305e-01, 1.70148998e-01, 2.19944909e-01, 3.98654640e-02,
          2.15575546e-01, -9.00927708e-02, 2.28818450e-02,
          2.97070178e-03, -3.87036875e-02, -1.34053811e-01,
          -4.42502648e-02 ]
      - [ 6.23978555e-01, 1.68967277e-01, -7.48016462e-02,
          -1.15102623e-02, 9.77262035e-02, -4.48329709e-02,
          -2.04289243e-01, -1.26021490e-01, -1.28106952e-01,
          -7.35342503e-02, 1.48590550e-01, -8.24798495e-02,
          -2.39154354e-01, -1.58327892e-01, 1.32438064e-01,
          -1.63448751e-01, -1.11367833e-02, 8.04914534e-02,
          -2.43536592e-01, -1.39339000e-01, 6.07109182e-02,
          3.47343922e-01, 1.17055312e-01, -6.73581958e-02,
          8.82334337e-02, 1.56761184e-01, 1.61372244e-01,
          -9.19099059e-03, 8.70828182e-02, -1.44952253e-01,
          4.18556631e-02, -1.40870998e-05, -7.29892543e-03,
          -9.40772593e-02, -6.58976436e-02 ]
      - [ 6.45318449e-01, -1.46347597e-01, 2.80457847e-02,
          -5.52574806e-02, 1.19673356e-01, 1.05955802e-01,
          -2.30582848e-01, 9.10105463e-03, -1.54132694e-01,
          -6.33113012e-02, -5.53667620e-02, -3.05992104e-02,
          -1.72916830e-01, -2.58564353e-01, 1.48616642e-01,
          -1.65869758e-01, -1.16286865e-02, 4.69337665e-02,
          -1.87406853e-01, -1.05708838e-01, -2.69296970e-02,
          3.53951752e-01, 1.46782562e-01, -2.46393010e-02,
          1.03177130e-01, 1.41854405e-01, 1.93107620e-01,
          -8.00841823e-02, 1.41886666e-01, -6.25066161e-02,
          2.28196047e-02, -2.96255276e-02, -1.67703014e-02,
          -6.03783093e-02, -2.74807513e-02 ]
      - [ 5.54181576e-01, -2.64656126e-01, -2.22814932e-01,
          -9.57874060e-02, -5.53285033e-02, 9.21516307e-03,
          -2.34625861e-01, -1.34000719e-01, -1.74273610e-01,
          -1.63899258e-01, 6.52723759e-03, -8.07091966e-02,
          -1.17407143e-01, -6.46678433e-02, 1.34512886e-01,
          -1.97106808e-01, -2.25447249e-02, 2.89514065e-02,
          -2.19604820e-01, -9.82697532e-02, 6.69108406e-02,
          3.89463872e-01, 7.63170943e-02, -5.76566793e-02,
          7.88659602e-02, 1.87983647e-01, 2.06755742e-01, 3.36630866e-02,
          1.06081590e-01, -6.91286251e-02, 1.73852518e-02,
          -6.55686185e-02, -2.90441196e-02, -1.31405875e-01,
          -2.10601632e-02 ]
      - [ 7.54144043e-02, 1.36320023e-02, -2.86574095e-01,
          -6.03516474e-02, -1.03136547e-01, -7.00327903e-02,
          -1.58489913e-01, -5.32874055e-02, -2.36522838e-01,
          1.15959845e-01, -5.37840389e-02, -5.63558042e-02,
          -2.10854918e-01, -1.51945412e-01, 2.53121406e-01,
          -2.16308922e-01, -4.45606112e-02, 9.40581933e-02,
          -2.57809788e-01, -2.33037636e-01, -2.58179344e-02,
          4.96006548e-01, 2.05911890e-01, -1.54044613e-01,
          1.22349568e-01, 1.66165426e-01, 2.14353830e-01, 3.86079066e-02,
          2.09943354e-01, -9.92423296e-02, 2.38429010e-02,
          1.12541802e-02, -2.54726671e-02, -1.41046301e-01,
          -3.72630060e-02 ]
      - [ 5.95236838e-01, -2.99367737e-02, -8.57204497e-02,
          -3.65884215e-01, 5.47527261e-02, 8.80188588e-03,
          -1.42109379e-01, 3.96529324e-02, -7.46032149e-02,
          -3.82861793e-02, -3.47127579e-02, 3.07673402e-02,
          -1.14405721e-01, -1.66351929e-01, 1.68346301e-01,
          -1.57599151e-01, -3.72772217e-02, 1.16853774e-01,
          -1.75472185e-01, -7.73968473e-02, -4.29162271e-02,
          4.45987582e-01, 1.76036820e-01, -7.63127953e-02,
          3.91075388e-02, 1.41593590e-01, 1.68067515e-01, 9.91515629e-03,
          1.49955958e-01, -6.23294897e-02, 3.69248465e-02,
          -4.71996255e-02, -1.06679928e-02, -6.57448471e-02,
          -4.36505452e-02 ]
      - [ 1.53032556e-01, 1.49796149e-02, -1.34292364e-01,
          -1.79728016e-01, 1.05167404e-01, -3.68867964e-02,
          -2.01825723e-01, -4.41418774e-02, -2.96503127e-01,
          2.63451729e-02, -2.98072211e-02, -8.85047466e-02,
          -2.00216979e-01, -1.22853309e-01, 2.38522023e-01,
          -1.89118296e-01, -1.18348107e-01, 7.08403885e-02,
          -2.48268142e-01, -3.00384670e-01, -2.62902007e-02,
          5.10590792e-01, 1.53814852e-01, -8.14182609e-02,
          1.04844071e-01, 1.90546364e-01, 2.29320824e-01,
          -3.55801843e-02, 1.52088344e-01, -9.06238332e-02,
          6.19615018e-02, -6.49250224e-02, -2.11235192e-02,
          -1.03699155e-01, -1.06875964e-01 ]
      - [ 3.93675447e-01, 2.19041277e-02, -3.99438947e-01,
          -9.19762552e-02, -6.08251877e-02, -1.96611792e-01,
          -1.58136413e-01, -1.02284744e-01, -3.08518112e-01,
          1.10832386e-01, 2.10692156e-02, -7.78491572e-02,
          -1.64382085e-01, -3.32062766e-02, 1.65336713e-01,
          -2.01496333e-01, -5.76213114e-02, 6.70561641e-02,
          -1.71859950e-01, -1.28836885e-01, -8.74349475e-02,
          4.03875649e-01, 6.66670054e-02, -1.24412917e-01,
          2.15324238e-01, 9.92183760e-02, 1.98864162e-01,
          -8.02662894e-02, 9.58575308e-02, -8.93408656e-02,
          -4.27322090e-02, -3.84827368e-02, 4.51730378e-03,
          -1.36374295e-01, -5.23603745e-02 ]
      - [ 3.69187146e-01, -1.48115203e-01, -3.81141812e-01,
          -2.39242062e-01, -8.72054994e-02, -7.18739331e-02,
          -2.45667547e-01, -1.55434638e-01, -1.65264726e-01,
          -7.64075993e-03, -1.42379776e-02, -1.28680468e-01,
          -1.74355268e-01, -1.10578179e-01, 1.61159068e-01,
          -2.90658385e-01, -5.78126311e-02, 3.35537158e-02,
          -1.66848376e-01, -1.00865267e-01, -3.88805792e-02,
          4.20366555e-01, 1.45134047e-01, -1.82049759e-02,
          1.14006661e-01, 1.02373615e-01, 2.14801833e-01, 4.88887168e-02,
          1.56903133e-01, -2.79543120e-02, 3.66725661e-02,
          -9.97037906e-03, -1.28511088e-02, -5.95609434e-02,
          -9.97390412e-03 ]
      - [ 1.70735359e-01, 2.27639754e-03, -1.08062491e-01,
          -1.83227047e-01, 9.34453160e-02, -1.27719473e-02,
          -2.12644160e-01, -5.78115089e-03, -2.79303908e-01,
          2.76433267e-02, 5.41871674e-02, -1.20916456e-01,
          -2.14683801e-01, -1.37970358e-01, 1.60845160e-01,
          -2.07956478e-01, -9.85222831e-02, 8.20000395e-02,
          -2.27712512e-01, -2.84589529e-01, -6.93147331e-02,
          5.26733339e-01, 1.69571444e-01, -1.15189470e-01,
          1.07675448e-01, 2.15030670e-01, 2.18471393e-01,
          -5.46867633e-03, 1.46332353e-01, -1.23846754e-01,
          5.88629432e-02, -6.82763159e-02, -5.31639718e-03,
          -1.00953333e-01, -8.14541355e-02 ]
      - [ 5.08409381e-01, -1.55453682e-01, -3.83178055e-01,
          -1.67035624e-01, 1.11352704e-01, 1.73072740e-02,
          -2.39072770e-01, -5.58573604e-02, -1.06996283e-01,
          -7.71537125e-02, 1.29151242e-02, -1.18956462e-01,
          -1.67746738e-01, -5.95212840e-02, 1.30716726e-01,
          -1.68975249e-01, 3.25635970e-02, 1.45218477e-01,
          -2.37628326e-01, -1.76796272e-01, -4.43472527e-02,
          3.18310648e-01, 1.73333183e-01, -9.18106511e-02,
          1.32144406e-01, 9.84097421e-02, 1.93975627e-01, 1.75700597e-02,
          1.26147419e-01, -9.86405239e-02, 3.34071554e-02,
          -2.39072181e-02, -2.77523790e-02, -3.93118858e-02,
          -1.19374618e-01 ]
      - [ 4.75685477e-01, -5.11784013e-03, -2.80048043e-01,
          -2.93276519e-01, 4.14670333e-02, -4.78157699e-02,
          -1.35501012e-01, -3.16787623e-02, -1.20327018e-01,
          5.60525209e-02, 5.19761331e-02, -8.32781047e-02,
          -2.30874494e-01, -5.43496311e-02, 2.79410899e-01,
          -1.57831818e-01, -2.02129246e-03, 2.56473441e-02,
          -1.78715974e-01, -9.44385901e-02, -5.57310879e-02,
          4.22223806e-01, 1.58539116e-01, -1.25829265e-01,
          1.98658943e-01, 1.30169436e-01, 2.16120467e-01, 4.84954789e-02,
          1.04528613e-01, -9.06363502e-02, -3.94098684e-02,
          -3.07774227e-02, -6.68426827e-02, -4.45088744e-02,
          -4.43548709e-02 ]
      - [ 6.09138429e-01, -6.91910684e-02, -3.56035680e-02,
          -2.07475618e-01, -3.89220566e-02, -2.01577991e-01,
          -2.42618263e-01, -7.78374895e-02, -1.11675918e-01,
          1.49918273e-01, -9.76884738e-03, -1.03182241e-01,
          -1.40221491e-01, -4.13265638e-02, 1.06712095e-01,
          -2.23662660e-01, -8.15636590e-02, 3.06283440e-02,
          -1.96003124e-01, -1.50876299e-01, -3.46770138e-02,
          3.41118395e-01, 1.80424705e-01, -1.28443390e-01,
          5.92515580e-02, 1.33488387e-01, 2.10631803e-01,
          -9.16338339e-03, 1.27245501e-01, -1.17718965e-01,
          4.40321341e-02, -6.07054855e-04, 8.82360432e-03,
          -9.17937309e-02, -5.14622852e-02 ]
      - [ 4.07046646e-01, 1.77322607e-02, -8.32575187e-02,
          2.85491925e-02, 2.09506489e-02, 1.35583773e-01,
          -1.47727415e-01, 2.44467393e-01, -3.58916253e-01,
          7.11967871e-02, 1.98504645e-02, -8.48067254e-02,
          -1.03811122e-01, -3.10485866e-02, 1.52402699e-01,
          -2.15299934e-01, -2.33057253e-02, 5.63023165e-02,
          -2.26103798e-01, -2.32307196e-01, -5.48383184e-02,
          5.05281210e-01, 1.02206647e-01, -3.56585458e-02,
          8.24465305e-02, 2.24235758e-01, 1.60734355e-01,
          -4.28711884e-02, 1.31182536e-01, -1.22559525e-01,
          -4.01545838e-02, -7.95205962e-03, 4.71412670e-03,
          -6.67111278e-02, -3.28237079e-02 ]
      - [ 5.87711871e-01, 1.41351327e-01, 9.68655869e-02,
          -4.46089432e-02, -1.27440304e-01, -2.01151557e-02,
          -2.21043214e-01, -8.63757059e-02, -1.42780960e-01,
          -1.64409414e-01, 4.92532812e-02, -4.76870947e-02,
          -1.30413353e-01, -1.05180442e-01, 2.08326861e-01,
          -1.50083482e-01, 6.46656305e-02, 3.06404545e-03,
          -2.08872974e-01, -1.63191423e-01, 1.88993923e-02,
          4.22183007e-01, 1.59992814e-01, -8.99620578e-02,
          7.87609890e-02, 1.62994027e-01, 1.75610185e-01, 2.81467624e-02,
          1.18475430e-01, -9.36062410e-02, 1.63449384e-02,
          3.05274092e-02, -1.13018043e-01, -1.23511761e-01,
          -3.15962732e-02 ]
      - [ 4.00494605e-01, -1.25713721e-01, -4.12959605e-01,
          -1.29386187e-01, 9.89674479e-02, -7.66742006e-02,
          -2.42412820e-01, -1.72966465e-01, -1.11532666e-01,
          -1.10085912e-01, 7.47097284e-03, -1.44191071e-01,
          -1.49900332e-01, -3.46202478e-02, 1.62235454e-01,
          -2.75452644e-01, -3.17810774e-02, 8.88823867e-02,
          -1.78016320e-01, -1.71444088e-01, -8.50402191e-02,
          3.93029064e-01, 1.61878213e-01, -5.56459203e-02,
          1.13810472e-01, 9.55935121e-02, 1.86554939e-01,
          -1.34060644e-02, 1.47745997e-01, -7.51370043e-02,
          -5.69056384e-02, -3.70657481e-02, -1.11040147e-02,
          -3.00924666e-02, -9.85586941e-02 ]
      - [ 6.03462458e-01, 7.15371221e-02, -1.07194163e-01,
          -9.99729782e-02, 2.15655267e-02, -4.50857319e-02,
          -2.69225419e-01, -1.11732543e-01, -9.06841382e-02,
          1.62983626e-01, 6.79268828e-03, -1.63224310e-01,
          -1.09602973e-01, 1.66011578e-03, 1.83675930e-01,
          -2.78023928e-01, -5.75620867e-02, 6.79514781e-02,
          -1.91404000e-01, -1.69684350e-01, -8.24454427e-03,
          3.29056293e-01, 1.01049282e-01, -1.15290120e-01,
          5.94208464e-02, 1.44052371e-01, 2.26451591e-01,
          -9.67094733e-04, 1.32781193e-01, -8.18606168e-02,
          1.33052496e-02, -2.96813529e-02, -2.07932964e-02,
          -1.53793544e-01, -8.36355388e-02 ]
      - [ 1.35185495e-01, 6.77781506e-03, -1.40023023e-01,
          -1.87669486e-01, 1.16995014e-01, -3.41747627e-02,
          -1.97972730e-01, -5.38684838e-02, -3.02019626e-01,
          3.33118215e-02, -3.13871540e-02, -1.13439329e-01,
          -1.97318465e-01, -1.17602676e-01, 2.46697262e-01,
          -1.74677372e-01, -1.06397279e-01, 8.39689746e-02,
          -2.41903424e-01, -3.02228183e-01, -2.35450473e-02,
          5.18025637e-01, 1.49984404e-01, -9.55879688e-02,
          1.01118378e-01, 1.77103207e-01, 2.19010904e-01,
          -3.52525748e-02, 1.45374805e-01, -1.04277059e-01,
          5.74620925e-02, -5.34176491e-02, -2.05634162e-02,
